svm_type c_svc
kernel_type rbf
gamma 0.0625
nr_class 36
total_sv 2065
rho 0.22790852049936242 -0.23198769874951497 -0.15894785377870327 -0.4787640019628153 -0.26229802111882006 -0.011820939969140087 -0.10699076185605685 -0.3413785605266561 -0.2169668994702744 -0.2618504374027654 -0.039750207288251925 -0.18709190794708278 -0.09122831029758799 -0.1794805560522787 0.12603749417712182 -0.16774694338899923 -0.7298853629209415 -0.3218567145992966 -0.5983496938292229 -0.24595644048717435 -0.13045533173228782 0.09886956157020683 -0.21599536572383363 0.0715923554761651 -0.18780404171875612 -0.02496222055338448 -0.16030376513520214 -0.16383708629206375 -0.1365850029522676 0.018821285067064313 -0.031244663271989787 0.36928037335648034 0.08273070532442366 0.08732705354594181 0.08105320107744579 -0.3654522837503814 -0.30591962760418784 -0.5345821356481557 -0.39222687630340036 -0.14627894200227395 -0.24764269180718032 -0.43707334060983694 -0.35689939775874374 -0.38057359684303077 -0.17856009006022622 -0.2929289732162465 -0.22361251006371544 -0.2929654099866572 -0.023854938668710916 -0.3195213759653235 -0.7071757493482773 -0.4587109675739484 -0.7585489642524003 -0.3836828667698543 -0.2797366059599931 -0.08800983073858112 -0.33898529251630116 -0.06818179568724037 -0.3541690845196474 -0.17777186301837605 -0.2923620949297576 -0.2990533952399265 -0.26332885786191573 -0.12129445972327253 -0.18508104313583426 0.2490333970881366 -0.13768346038461854 -0.08893450400861212 -0.10341866208046277 0.10309222244345666 -0.12978084255574648 0.032512891004164775 0.2500343261512625 0.14083845356821822 0.02242378480303924 0.06464463903036091 -0.07332714361917901 0.24894902458555415 0.10108655118917186 0.14604391703929473 0.0646967253243858 0.41207860952818726 0.06902992515421791 -0.20300697209153162 -0.0757854792528985 -0.2883081316686215 0.004304058306868099 0.13214745694493224 0.34075282991309785 -0.012931521334898806 0.3600605469260786 0.03365576399064977 0.2329263615247714 0.07597554666015 0.06905368615231347 0.09987737491559166 0.3108319032757775 0.2785668439003992 0.6134496910908832 0.2599480677745029 0.3357194715249921 0.29102599698943543 -0.2550851191260962 -0.12540913539627593 0.19856379313642727 0.03431744541765847 -0.08723980213487889 -0.0834091855504502 -0.16961806522624348 0.11842805285648837 -0.011884599587850063 0.027781026459583167 -0.06455987025770706 0.2986903890310361 -0.047807089754497614 -0.3452116023542038 -0.28542831015623854 -0.3939923391629877 -0.1624801373283603 0.03039147069395866 0.24210632235588736 -0.12222556774652751 0.25378205019534683 -0.0671489292879839 0.11140591815546733 -0.038021807194207544 -0.03713556239922763 -0.0199455766146898 0.17735398668866456 0.11053825333580818 0.5256083223422977 0.15778416069537574 0.2305095889904106 0.25915262696490865 0.20373847664270386 0.37776241655081 0.2848986141432655 0.4547159717273811 0.2057960230934 0.05353046749529605 0.31323980560920606 0.24618641008723915 0.3211954991818771 0.22116895041911844 0.49682353629181647 0.20811157850344292 -0.06298773829128401 0.06167315261877453 -0.22448630096592925 0.15646180651085823 0.29183550703159367 0.4686037148600665 0.11247955469521291 0.5208820567559543 0.18673679831049694 0.34750264659726704 0.20388926416006867 0.190380824957365 0.24436401544295852 0.3818202411614563 0.31384750512159343 0.7080876680434398 0.42146381193794363 0.4624698337588853 0.4443028077799184 0.23554839943068465 0.12428737039525198 -0.009382653664815672 0.01875965148581379 -0.08908598882132032 0.26944040527779234 0.07439796148808467 0.1179311268553127 0.04158146088203411 0.3721497848834994 0.020855765363679366 -0.30002593191260146 -0.12906725108447406 -0.3435307628645785 -0.011499943602775588 0.09970817812781359 0.3185281381407365 -0.0409069591180726 0.35946566279044656 0.006522657274175059 0.18910333661406456 0.034551846259910445 0.03224379936204864 0.07880802619713588 0.2640453661416745 0.18099776820280508 0.5970725978104461 0.22074519976127518 0.31529432848702643 0.28908078703778667 -0.28500627527023903 -0.2002181829969031 -0.25183619561876236 -0.3661612396589588 -0.008455278948180925 -0.17647431347374154 -0.1362000130785418 -0.3182845236077086 0.1591366349185128 -0.20202051731899337 -0.39650251050473595 -0.46181409500671733 -0.47552374281982546 -0.30152782918165744 -0.1031443750088278 0.09639761630559396 -0.3068292867372537 0.14429540390938822 -0.2390731335480483 -0.022829020032882605 -0.21190697142816461 -0.23327752260467544 -0.1868440780306345 0.05550611322305721 -0.015512105795185643 0.4346789490737843 0.011779861291838388 0.07941814234874452 0.066873999207762 -0.10414537340245472 -0.06278295945754529 -0.2716504500814765 0.1035101911764611 -0.08841603400796609 0.014439282858544938 -0.12859220090748308 0.2762767585253486 -0.0887819865786025 -0.3267310554740252 -0.3775966705021599 -0.420409752634626 -0.1339976454389632 0.0011332760880257311 0.20245940128154474 -0.20577364477417237 0.30106639320011813 -0.14780621984697215 0.0790049250262843 -0.08593232238096209 -0.10975363250443661 -0.04517330511218078 0.15358679522339255 0.07175365719294073 0.5111534069373757 0.11288539530481313 0.18814007888826856 0.17580538174422822 0.03419338484255625 -0.09041608048897605 0.16988579004220905 0.0466778662249435 0.13921498279226083 0.03981185207000508 0.351427835181017 0.044723353040697446 -0.5177626496379032 -0.10117264680661403 -0.3965498290880644 -0.010022616920950671 0.14382087014164735 0.31808675093301797 -0.035869229831129994 0.31005756456296973 0.022244860569105254 0.19277878224796227 0.04048042580786562 0.03711243206969843 0.06518023326419176 0.255938594994369 0.18993836627481359 0.5890237449578046 0.26006486161951636 0.2913737883835089 0.32876043466605887 -0.11620728334006558 0.17313032812185677 0.037858901996011586 0.15593898306117984 0.008825497830125721 0.40659485008138146 0.018852550034871757 -0.27306145323277964 -0.14496855022041555 -0.354790486546738 -0.02837951544533396 0.09374357541074235 0.28667760110045315 -0.06279663069728887 0.37982294922801885 -0.016679306690632327 0.19353072487469633 0.03867647320622767 0.008884955733940875 0.04167640775097506 0.23591556793512503 0.1780042698297242 0.5742835017604058 0.20515538069663944 0.29845095991352355 0.2862007395256615 0.5267817227498718 0.15741741207235518 0.23662883953583272 0.12256568122352832 0.4303237758375008 0.1405969863148832 -0.1284675633474715 -0.009346678661195693 -0.21409611252547983 0.08063835993856691 0.19674868015502137 0.4237631146527149 0.11393026247157052 0.45571438830493577 0.13837377909073367 0.2828773222333751 0.15937141955888892 0.18222311317390114 0.22773717684329653 0.36197757337124625 0.2674331959488215 0.6642128789454733 0.2875319909618637 0.4166646337349451 0.32165265983659125 -0.20632435497169718 -0.07395970058443432 -0.3264124096145074 0.16160215859696064 -0.16561638719755656 -0.36156066700786293 -0.31598842991196635 -0.4709817788337954 -0.21734714468266916 -0.08070777200820616 0.1894750826402288 -0.2916656971085718 0.12142879162938858 -0.186167169567573 0.00161983506320468 -0.19785463926402672 -0.18410960517446512 -0.13059764218059716 0.09977825088189812 0.012792580099813622 0.4238312986123009 0.036732369072313045 0.10652650874115058 0.08501990560881313 0.06400268314740815 -0.04503483016213036 0.29693755943197775 -0.03408201360792297 -0.29286901213313765 -0.18441575994026194 -0.3797969797436738 -0.08624000617020393 0.04320803909412726 0.29152666709983005 -0.06181329012775627 0.3051862154974009 -0.045842287875955824 0.12783266284490022 -0.03673177618559745 -0.014986969788534666 0.018570848045499855 0.2629615997546275 0.14866563425315174 0.5412080808685941 0.18430529896622241 0.2684520968240504 0.24490903667415312 -0.11884166058270106 0.2854537016990347 -0.11574355423750707 -0.3425936895919885 -0.22779466962833825 -0.4151053706420242 -0.13575961376197837 -0.013462556810735707 0.17781454779818187 -0.17876333075489614 0.27575710246266755 -0.13099197232934237 0.07473099822097322 -0.1122591489069245 -0.09549365154369197 -0.06395030950309248 0.1264105581431442 0.06320049768501737 0.4815023486912963 0.09918641174467152 0.1716545198702289 0.1556956525504858 0.34736173436711676 0.0016602959417334868 -0.25402987672437577 -0.15473796061534784 -0.33622033614466207 -0.044036888264480385 0.07473694173077607 0.28840078436081545 -0.0552758654245143 0.3581366231412813 -0.02781933139091644 0.16447942540879285 0.019595863406631477 0.023373254970327023 0.05352554214640972 0.236847434257845 0.14756464468088837 0.5836131348938473 0.19702695653980395 0.2636935041987687 0.22626489163124647 -0.3849544180320142 -0.531327823708025 -0.47554151325279775 -0.6175818480657956 -0.41833169746860926 -0.25194495967623987 -0.0296590216464018 -0.4024985255731347 -0.029824453521239386 -0.43201145091687554 -0.1798727998182889 -0.40127365551710886 -0.3747601490348826 -0.3055044358877645 -0.07885249367582448 -0.16020189081754935 0.2915674315001973 -0.11100493979330225 -0.059317470157011054 -0.06783821561960866 -0.2791884626682169 -0.13936817801482576 -0.36600437753971965 -0.0666308548142061 0.08562185270792735 0.280046057686109 -0.077721718892935 0.35670185690967987 -0.009983454510389591 0.16599882335291105 0.020177266815661326 0.01767440168758994 0.03727333200559888 0.2284642612179119 0.1621510041803729 0.5986303211000805 0.19265920460927372 0.3360723133583819 0.24426783578456254 0.14501926681124802 -0.12373368435318649 0.2269080813548322 0.3869059614623572 0.5358971939106546 0.18177528644328264 0.5118342320623928 0.24553791836747652 0.4084213551871362 0.2618474273930182 0.2584594454650844 0.2993069578837411 0.4834864454424928 0.3890958919945958 0.7316923626119832 0.508906216339364 0.49973265053513327 0.562177308781821 -0.23981643370228042 0.11975010855727933 0.20172140625327264 0.411125184201714 0.06906669619827933 0.48347072754116016 0.13270234315396598 0.28808424761485324 0.14400623320054232 0.1518917643554871 0.1889354400890001 0.34899241470319486 0.26335942308778665 0.6306023124213298 0.3011660643560623 0.42130398262745944 0.36324860057468733 0.3164855157387664 0.4243328625367442 0.6077036039139121 0.27644835123121553 0.5869796863223542 0.3618270593013461 0.5109010388087577 0.34520920311683684 0.3502618191133552 0.3709760449812528 0.5160467942722823 0.4909805706725314 0.7374879373221042 0.4890458693987038 0.617422347492614 0.5335395319685593 0.13963186090641289 0.33120543301808497 -0.03123527334163858 0.3804295812930705 0.028119970073765908 0.21271729346324755 0.06835090854014578 0.0620673611748459 0.08556442847956652 0.2756676545984411 0.20479040696559414 0.5972639403996454 0.24019652505137465 0.32920094045690473 0.30323511025042577 0.21778687918990727 -0.1365143476187639 0.21957728064945703 -0.08560268541404728 0.07678493015303502 -0.08240118304610636 -0.06454127337108688 -0.0444799925683848 0.1617667241223963 0.07828965747441134 0.5339818176376467 0.12104338550140578 0.1931272603009899 0.29866791414638905 -0.3651822442339731 0.008118992689547211 -0.27988691379116626 -0.11426203485903458 -0.2885195308114045 -0.280534894537709 -0.2759468718487649 -0.09726106444911448 -0.1138497715899662 0.3419739767985916 -0.07525312071141167 -0.07319256086531623 -0.030042028739615752 0.3989172332863933 0.07979184600187199 0.25002054630779963 0.09085105405695842 0.11216305771363355 0.13845058696443513 0.29177087713505984 0.2090398114707301 0.5896563066079333 0.22951353070409658 0.3965656282760248 0.27043825368357505 -0.4368093944417917 -0.17225947632338887 -0.35229485545305766 -0.3993873475867746 -0.29522225716404626 -0.05949915345117543 -0.132400346142238 0.3051508795811867 -0.0971770117528064 -0.02836658482721017 -0.022596514439127562 0.2561595151567184 0.03706660194847397 0.04034198215260305 0.0657974176185696 0.22501903242497293 0.16876858285167307 0.5511426978157736 0.18768761285456842 0.3259946364799739 0.23397251771981534 -0.17626142269005748 -0.18967858571952095 -0.12418067995896631 0.07239976660724827 -0.00508358805149993 0.41944895772426743 0.04249553042656722 0.1412197654266484 0.0881004079610015 0.004880306100626786 0.054094663906807366 0.22336737300308507 0.1499158364311804 0.590579527347152 0.1749639720932275 0.2986155556518539 0.2337984688413252 0.07302920230876338 0.21489979350459637 0.12565434669864023 0.5322695828040548 0.16757767359671197 0.2695938450073052 0.21902155515960373 0.20438527670994255 0.1138836179451987 0.5577651813965282 0.14836320748113313 0.20395688167895776 0.20643863894408673 -0.0676937284062728 0.4567904143612138 -0.0055055096032871915 0.037120085473143404 0.07717781368001701 0.3975777262176143 0.04197995275137109 0.10661097168781673 0.08718328310832749 -0.371168272613897 -0.36319854050043754 -0.297390627851642 0.06439661911568607 0.08208154503197336 -0.01614194118047573
label 1 10 11 12 13 14 15 16 17 18 19 2 20 21 22 23 24 25 26 27 28 29 3 30 31 32 33 34 35 36 4 5 6 7 8 9
nr_sv 123 134 31 40 31 36 41 25 38 33 33 107 32 41 36 31 31 30 27 25 29 34 122 33 42 30 30 32 30 36 115 91 157 114 120 125
SV
0.29669273825383846 0.26000179209411955 0.32202896977806494 0.2269843780628886 0.2159885327638245 0.31345755581843815 0.279329991501024 0.38528589727322515 0.5249519727579346 0.16930031846828555 0.3755900039453587 0.3595879951627849 0.42564390801982915 0.2659871374804834 0.5808432321214478 0.4925068510592064 0.14848009703364864 0.20176659535793187 0.16420158415706296 0.37217569435006453 0.31435405278094 0.2866609570299375 0.2178349502059874 0.6997592310156818 0.3776265594508344 0.4535050770510049 0.34403855620388385 0.31786838736406275 0.24563765160521728 0.28739078525242706 0.307655702255469 0.4137244194360957 0.6150213266409674 0.3442408062466804 0.37332142641812743 1:0.0 2:0.0 3:0.0 4:1.0 5:1.0 6:1.0 7:1.0 8:1.0 9:0.0 10:0.0 11:0.0 12:1.0 13:0.0 14:1.0 15:1.0 16:1.0 17:0.0 18:1.0 19:1.0 20:0.0 21:0.0 22:1.0 23:0.0 24:1.0 25:1.0 26:1.0 27:0.0 28:1.0 29:1.0 30:0.0 31:0.0 32:1.0 33:1.0 34:0.0 35:0.0 36:0.0 37:0.0 38:0.0 39:1.0 40:1.0 41:1.0 42:1.0 43:0.0 44:0.0 45:0.0 46:0.0 47:0.0 48:0.0 49:1.0 50:0.0 51:0.0 52:0.0 53:0.0 54:0.0 55:0.0 56:0.0 57:0.0 58:1.0 59:1.0 60:0.0 61:0.0 62:0.0 63:0.0 64:0.0 65:1.0 66:1.0 67:1.0 68:1.0 69:1.0 70:0.0 71:0.0 72:0.0 73:1.0 74:0.0 75:1.0 76:1.0 77:1.0 78:1.0 79:1.0 80:0.0 81:0.0 82:0.0 83:1.0 84:1.0 85:1.0 86:0.0 87:1.0 88:0.0 89:0.0 90:0.0 91:0.0 92:0.0 93:0.0 94:1.0 95:0.0 96:0.0 97:0.0 98:0.0 99:0.0 100:0.0 
0.0 0.0 0.0 0.0 0.0 0.0 0.0 0.01492177641794248 0.0 0.0 0.0 0.0 0.0 0.0 0.0 0.0 0.0 0.0 0.0 0.0 0.043643037188344544 0.0 0.0 0.0 0.0 0.0 0.0 0.0 0.0 0.0 0.0 0.0 0.0 0.0 0.0 1:0.0 2:0.0 3:0.0 4:0.0 5:1.0 6:0.0 7:1.0 8:1.0 9:0.0 10:0.0 11:0.0 12:1.0 13:1.0 14:1.0 15:1.0 16:1.0 17:1.0 18:1.0 19:1.0 20:0.0 21:0.0 22:1.0 23:1.0 24:1.0 25:1.0 26:1.0 27:0.0 28:1.0 29:1.0 30:0.0 31:1.0 32:1.0 33:1.0 34:1.0 35:0.0 36:0.0 37:0.0 38:0.0 39:1.0 40:1.0 41:1.0 42:1.0 43:0.0 44:0.0 45:0.0 46:0.0 47:0.0 48:0.0 49:1.0 50:1.0 51:1.0 52:0.0 53:0.0 54:0.0 55:0.0 56:0.0 57:0.0 58:0.0 59:1.0 60:0.0 61:1.0 62:0.0 63:0.0 64:0.0 65:0.0 66:1.0 67:1.0 68:1.0 69:0.0 70:0.0 71:1.0 72:0.0 73:0.0 74:0.0 75:0.0 76:1.0 77:1.0 78:1.0 79:0.0 80:0.0 81:1.0 82:1.0 83:1.0 84:1.0 85:1.0 86:1.0 87:1.0 88:1.0 89:1.0 90:0.0 91:0.0 92:0.0 93:0.0 94:1.0 95:0.0 96:0.0 97:0.0 98:0.0 99:0.0 100:0.0 
0.0 0.0 0.0 0.0 0.0 0.0 0.0 0.0 0.04357369568157506 0.0 0.0 0.0 0.0 0.0 0.0 0.0 0.0 0.0 0.0 0.0 0.0 0.0 0.0 0.0 0.0 0.0 0.0 0.0 0.019535493190829215 0.0 0.0 0.0 0.0 0.0 0.0 1:0.0 2:0.0 3:0.0 4:1.0 5:1.0 6:1.0 7:1.0 8:1.0 9:0.0 10:0.0 11:0.0 12:1.0 13:1.0 14:1.0 15:1.0 16:0.0 17:1.0 18:1.0 19:1.0 20:0.0 21:0.0 22:1.0 23:1.0 24:1.0 25:1.0 26:1.0 27:1.0 28:1.0 29:1.0 30:0.0 31:0.0 32:1.0 33:1.0 34:0.0 35:0.0 36:0.0 37:0.0 38:0.0 39:1.0 40:1.0 41:1.0 42:1.0 43:0.0 44:0.0 45:0.0 46:0.0 47:0.0 48:0.0 49:1.0 50:0.0 51:1.0 52:0.0 53:0.0 54:0.0 55:0.0 56:0.0 57:0.0 58:1.0 59:1.0 60:0.0 61:0.0 62:1.0 63:1.0 64:1.0 65:1.0 66:1.0 67:1.0 68:1.0 69:1.0 70:0.0 71:0.0 72:1.0 73:1.0 74:1.0 75:1.0 76:1.0 77:1.0 78:1.0 79:1.0 80:0.0 81:0.0 82:0.0 83:1.0 84:1.0 85:1.0 86:1.0 87:1.0 88:0.0 89:0.0 90:0.0 91:0.0 92:0.0 93:0.0 94:1.0 95:0.0 96:0.0 97:0.0 98:0.0 99:0.0 100:0.0 
0.0 0.0 0.0 0.0 0.0 0.0 0.0 0.0 0.0 0.0 0.0 0.0 0.0 0.0 0.0 0.0 0.0 0.0 0.0 0.0 0.0 0.0 0.0 0.0 0.0 0.0 0.0 0.0 0.0 0.0 0.0 0.0 0.03277382720494719 0.0 0.0 1:0.0 2:0.0 3:0.0 4:0.0 5:0.0 6:1.0 7:1.0 8:1.0 9:0.0 10:0.0 11:0.0 12:0.0 13:1.0 14:1.0 15:1.0 16:1.0 17:1.0 18:1.0 19:1.0 20:0.0 21:0.0 22:0.0 23:1.0 24:1.0 25:1.0 26:1.0 27:1.0 28:1.0 29:1.0 30:0.0 31:0.0 32:1.0 33:1.0 34:1.0 35:1.0 36:0.0 37:0.0 38:0.0 39:1.0 40:1.0 41:1.0 42:1.0 43:0.0 44:0.0 45:0.0 46:0.0 47:0.0 48:0.0 49:0.0 50:1.0 51:1.0 52:0.0 53:0.0 54:0.0 55:0.0 56:0.0 57:0.0 58:0.0 59:1.0 60:1.0 61:1.0 62:0.0 63:0.0 64:0.0 65:0.0 66:0.0 67:1.0 68:1.0 69:1.0 70:0.0 71:1.0 72:0.0 73:0.0 74:0.0 75:0.0 76:0.0 77:1.0 78:1.0 79:1.0 80:0.0 81:1.0 82:1.0 83:0.0 84:1.0 85:1.0 86:1.0 87:1.0 88:1.0 89:1.0 90:0.0 91:0.0 92:0.0 93:1.0 94:1.0 95:0.0 96:1.0 97:0.0 98:0.0 99:0.0 100:0.0 
0.3523940950935696 0.0 0.15257264601179976 0.0 0.5638062685256868 0.037973454336935775 0.040048889955357075 0.05516696066574314 0.0 0.05628364784173964 0.0022335285287243796 0.0 0.05753852658521393 0.17775557054165833 0.0576751253307494 0.0 0.2276565276927845 0.04139440083757381 0.0 0.027243874826421023 0.14269163816508518 0.04912446897280626 0.03642577756043421 0.0686715387033973 0.044007087502365067 0.0708216184601671 0.06685002439683667 0.04612557678493711 0.06386325964862903 0.0 0.0 0.0760394166285549 0.039945011051246565 0.0 0.30439821269221706 1:0.0 2:0.0 3:0.0 4:0.0 5:0.0 6:0.0 7:0.0 8:1.0 9:0.0 10:0.0 11:0.0 12:1.0 13:1.0 14:1.0 15:1.0 16:1.0 17:1.0 18:0.0 19:1.0 20:0.0 21:0.0 22:1.0 23:1.0 24:1.0 25:0.0 26:1.0 27:1.0 28:1.0 29:1.0 30:0.0 31:0.0 32:1.0 33:1.0 34:1.0 35:1.0 36:1.0 37:1.0 38:0.0 39:1.0 40:1.0 41:1.0 42:1.0 43:0.0 44:0.0 45:0.0 46:0.0 47:0.0 48:0.0 49:0.0 50:1.0 51:1.0 52:0.0 53:0.0 54:0.0 55:0.0 56:0.0 57:0.0 58:0.0 59:0.0 60:1.0 61:1.0 62:1.0 63:0.0 64:0.0 65:0.0 66:0.0 67:0.0 68:1.0 69:1.0 70:1.0 71:1.0 72:1.0 73:0.0 74:0.0 75:0.0 76:0.0 77:0.0 78:1.0 79:1.0 80:1.0 81:0.0 82:0.0 83:1.0 84:1.0 85:1.0 86:0.0 87:1.0 88:1.0 89:1.0 90:0.0 91:0.0 92:0.0 93:0.0 94:1.0 95:1.0 96:1.0 97:1.0 98:0.0 99:0.0 100:0.0 
0.1634947961239969 0.038918181234528046 0.0 0.0 0.240318358401353 0.0 0.0 0.0 0.0 0.0 0.0 0.0 0.00915306421061129 0.04793404070799975 0.0 0.0 0.0 0.0 0.0 0.011741637746548881 0.0 0.03499023730382596 0.0 0.0 0.0 0.0 0.0 0.0 0.04056424207574485 0.04509280653730085 0.0 0.07786804893193555 0.18081957656530964 0.0 0.0 1:0.0 2:0.0 3:0.0 4:0.0 5:0.0 6:0.0 7:1.0 8:0.0 9:0.0 10:0.0 11:0.0 12:0.0 13:0.0 14:1.0 15:1.0 16:0.0 17:1.0 18:1.0 19:0.0 20:0.0 21:0.0 22:0.0 23:1.0 24:1.0 25:1.0 26:1.0 27:1.0 28:1.0 29:0.0 30:0.0 31:0.0 32:1.0 33:1.0 34:0.0 35:1.0 36:1.0 37:0.0 38:1.0 39:1.0 40:0.0 41:0.0 42:1.0 43:0.0 44:0.0 45:0.0 46:0.0 47:0.0 48:0.0 49:1.0 50:1.0 51:1.0 52:1.0 53:0.0 54:0.0 55:0.0 56:0.0 57:0.0 58:0.0 59:1.0 60:0.0 61:1.0 62:0.0 63:0.0 64:0.0 65:0.0 66:0.0 67:0.0 68:1.0 69:1.0 70:0.0 71:1.0 72:0.0 73:0.0 74:0.0 75:0.0 76:0.0 77:0.0 78:1.0 79:1.0 80:0.0 81:0.0 82:1.0 83:1.0 84:1.0 85:1.0 86:1.0 87:1.0 88:1.0 89:1.0 90:0.0 91:0.0 92:0.0 93:0.0 94:1.0 95:1.0 96:1.0 97:1.0 98:0.0 99:0.0 100:0.0 
0.0 0.0 0.0 0.0 0.0 0.0 0.0 0.0 0.0 0.0 0.0 0.0 0.0 0.0 0.0 0.0 0.0 0.0 0.01911678742825641 0.0 0.0 0.0 0.0 0.0 0.0 0.0 0.0 0.0 0.0 0.0 0.0 0.0 0.0 0.0 0.0 1:0.0 2:0.0 3:0.0 4:1.0 5:1.0 6:0.0 7:1.0 8:1.0 9:0.0 10:0.0 11:0.0 12:1.0 13:1.0 14:1.0 15:1.0 16:1.0 17:1.0 18:1.0 19:0.0 20:0.0 21:0.0 22:1.0 23:1.0 24:1.0 25:1.0 26:1.0 27:1.0 28:1.0 29:1.0 30:0.0 31:0.0 32:1.0 33:0.0 34:0.0 35:0.0 36:0.0 37:0.0 38:0.0 39:1.0 40:1.0 41:1.0 42:1.0 43:0.0 44:0.0 45:0.0 46:0.0 47:0.0 48:0.0 49:0.0 50:1.0 51:1.0 52:1.0 53:0.0 54:0.0 55:0.0 56:0.0 57:0.0 58:0.0 59:0.0 60:1.0 61:1.0 62:1.0 63:0.0 64:0.0 65:0.0 66:0.0 67:0.0 68:0.0 69:1.0 70:0.0 71:0.0 72:1.0 73:1.0 74:1.0 75:1.0 76:1.0 77:1.0 78:0.0 79:1.0 80:0.0 81:0.0 82:1.0 83:1.0 84:1.0 85:1.0 86:1.0 87:1.0 88:0.0 89:1.0 90:0.0 91:0.0 92:0.0 93:1.0 94:1.0 95:1.0 96:0.0 97:1.0 98:1.0 99:0.0 100:0.0 
0.2023573558439037 0.0 0.0 0.0 0.0 0.0 0.0 0.0 0.0 0.0 0.0 0.0 0.0 0.0 0.0 0.0 0.17789107870016832 0.0 0.0 0.0 0.0 0.0 0.0 0.0 0.0 0.0 0.0 0.0 0.0 0.0 0.0 0.0 0.0 0.0 0.0 1:0.0 2:0.0 3:1.0 4:1.0 5:1.0 6:1.0 7:1.0 8:1.0 9:0.0 10:0.0 11:0.0 12:1.0 13:1.0 14:1.0 15:1.0 16:1.0 17:1.0 18:1.0 19:1.0 20:0.0 21:0.0 22:1.0 23:1.0 24:1.0 25:1.0 26:0.0 27:1.0 28:1.0 29:1.0 30:0.0 31:0.0 32:1.0 33:1.0 34:0.0 35:0.0 36:0.0 37:0.0 38:0.0 39:0.0 40:1.0 41:1.0 42:1.0 43:0.0 44:0.0 45:0.0 46:0.0 47:0.0 48:0.0 49:0.0 50:1.0 51:0.0 52:1.0 53:0.0 54:0.0 55:0.0 56:0.0 57:0.0 58:0.0 59:0.0 60:1.0 61:1.0 62:1.0 63:0.0 64:0.0 65:0.0 66:0.0 67:0.0 68:0.0 69:0.0 70:1.0 71:0.0 72:1.0 73:1.0 74:1.0 75:1.0 76:1.0 77:1.0 78:1.0 79:1.0 80:0.0 81:0.0 82:1.0 83:1.0 84:1.0 85:1.0 86:1.0 87:1.0 88:1.0 89:1.0 90:0.0 91:0.0 92:0.0 93:1.0 94:1.0 95:1.0 96:1.0 97:1.0 98:1.0 99:0.0 100:0.0 
0.0 0.0 0.0 0.0 0.0 0.0 0.0 0.0 0.012579287650076614 0.0 0.0 0.0 0.0 0.0 0.0 0.0 0.0 0.0 0.0 0.0 0.0 0.0 0.0 0.0 0.0 0.0 0.0 0.0 0.0 0.0 0.0 0.0 0.0 0.0 0.0 1:0.0 2:0.0 3:0.0 4:0.0 5:1.0 6:1.0 7:1.0 8:1.0 9:0.0 10:0.0 11:0.0 12:0.0 13:1.0 14:1.0 15:0.0 16:1.0 17:0.0 18:1.0 19:1.0 20:0.0 21:0.0 22:0.0 23:1.0 24:1.0 25:1.0 26:1.0 27:1.0 28:1.0 29:1.0 30:0.0 31:0.0 32:1.0 33:1.0 34:1.0 35:0.0 36:0.0 37:0.0 38:0.0 39:1.0 40:1.0 41:0.0 42:1.0 43:0.0 44:0.0 45:0.0 46:0.0 47:0.0 48:0.0 49:0.0 50:0.0 51:1.0 52:1.0 53:0.0 54:0.0 55:0.0 56:0.0 57:0.0 58:0.0 59:1.0 60:0.0 61:0.0 62:1.0 63:1.0 64:0.0 65:1.0 66:1.0 67:1.0 68:1.0 69:1.0 70:0.0 71:0.0 72:1.0 73:1.0 74:0.0 75:1.0 76:1.0 77:1.0 78:1.0 79:1.0 80:0.0 81:0.0 82:0.0 83:1.0 84:1.0 85:1.0 86:1.0 87:1.0 88:1.0 89:0.0 90:0.0 91:0.0 92:0.0 93:0.0 94:1.0 95:0.0 96:0.0 97:0.0 98:0.0 99:0.0 100:0.0 
0.0 0.0026498174333352137 0.0 0.0 0.020032799684367726 0.0 0.0 0.43846883245158985 0.0 0.0 0.009176141630055798 0.02062711363446933 0.0 0.0 0.0 0.0 0.17649518263294126 0.0 0.0 0.0 0.09397204966770534 0.0 0.0 0.0 0.0 0.0 0.0 0.0 0.0 0.051260989593564565 0.0 0.0 0.09681956775552389 0.0 0.22041437183575863 1:0.0 2:0.0 3:0.0 4:0.0 5:0.0 6:0.0 7:1.0 8:1.0 9:0.0 10:0.0 11:0.0 12:0.0 13:1.0 14:1.0 15:1.0 16:1.0 17:1.0 18:1.0 19:1.0 20:0.0 21:0.0 22:0.0 23:1.0 24:1.0 25:1.0 26:1.0 27:0.0 28:1.0 29:1.0 30:0.0 31:0.0 32:0.0 33:1.0 34:0.0 35:1.0 36:1.0 37:0.0 38:0.0 39:1.0 40:1.0 41:0.0 42:0.0 43:1.0 44:0.0 45:0.0 46:0.0 47:0.0 48:0.0 49:0.0 50:1.0 51:1.0 52:1.0 53:0.0 54:0.0 55:0.0 56:0.0 57:0.0 58:0.0 59:1.0 60:1.0 61:0.0 62:1.0 63:1.0 64:0.0 65:0.0 66:0.0 67:1.0 68:1.0 69:1.0 70:1.0 71:0.0 72:1.0 73:1.0 74:0.0 75:0.0 76:0.0 77:1.0 78:1.0 79:1.0 80:1.0 81:0.0 82:0.0 83:1.0 84:1.0 85:1.0 86:1.0 87:1.0 88:1.0 89:1.0 90:0.0 91:0.0 92:0.0 93:0.0 94:1.0 95:0.0 96:1.0 97:0.0 98:0.0 99:0.0 100:0.0 
0.0 0.0 0.0 0.08054611477239215 0.0 0.0 0.0 0.6291129290391736 0.0 0.0 0.0 0.0 0.0 0.0 0.0 0.0 0.1463315961009668 0.0 0.0 0.0 0.0 0.0 0.0 0.0 0.0 0.0 0.0 0.0 0.0 0.0 0.0 0.0 0.0 0.0 0.0 1:0.0 2:0.0 3:1.0 4:1.0 5:1.0 6:1.0 7:1.0 8:1.0 9:0.0 10:0.0 11:0.0 12:1.0 13:1.0 14:1.0 15:1.0 16:1.0 17:1.0 18:1.0 19:0.0 20:0.0 21:0.0 22:1.0 23:1.0 24:1.0 25:1.0 26:1.0 27:1.0 28:1.0 29:1.0 30:0.0 31:1.0 32:1.0 33:0.0 34:0.0 35:0.0 36:0.0 37:0.0 38:0.0 39:1.0 40:1.0 41:1.0 42:0.0 43:0.0 44:0.0 45:0.0 46:0.0 47:0.0 48:0.0 49:0.0 50:1.0 51:1.0 52:0.0 53:0.0 54:0.0 55:0.0 56:0.0 57:0.0 58:0.0 59:0.0 60:1.0 61:1.0 62:1.0 63:0.0 64:0.0 65:0.0 66:0.0 67:0.0 68:0.0 69:1.0 70:1.0 71:0.0 72:1.0 73:1.0 74:1.0 75:1.0 76:0.0 77:1.0 78:1.0 79:1.0 80:0.0 81:0.0 82:1.0 83:1.0 84:1.0 85:1.0 86:0.0 87:1.0 88:1.0 89:1.0 90:0.0 91:0.0 92:0.0 93:1.0 94:1.0 95:0.0 96:1.0 97:1.0 98:1.0 99:0.0 100:0.0 
0.0 0.0 0.0 0.0 0.0 0.0 0.0 0.0 0.0 0.0 0.0 0.0 0.0 0.0 0.0 0.0 0.0 0.0 0.0 0.0 0.0 0.0 0.0 0.0 0.0 0.0 0.0 0.0 0.0 0.0 0.0 0.0 0.0 0.0 0.004665349661853812 1:0.0 2:0.0 3:0.0 4:0.0 5:0.0 6:0.0 7:1.0 8:1.0 9:0.0 10:0.0 11:0.0 12:1.0 13:1.0 14:1.0 15:1.0 16:1.0 17:1.0 18:1.0 19:1.0 20:0.0 21:0.0 22:1.0 23:1.0 24:1.0 25:1.0 26:1.0 27:1.0 28:1.0 29:1.0 30:0.0 31:0.0 32:1.0 33:1.0 34:1.0 35:1.0 36:1.0 37:1.0 38:0.0 39:1.0 40:1.0 41:1.0 42:1.0 43:0.0 44:0.0 45:0.0 46:0.0 47:0.0 48:0.0 49:0.0 50:1.0 51:1.0 52:0.0 53:0.0 54:0.0 55:0.0 56:0.0 57:0.0 58:0.0 59:0.0 60:1.0 61:1.0 62:1.0 63:0.0 64:0.0 65:0.0 66:0.0 67:0.0 68:1.0 69:1.0 70:1.0 71:1.0 72:1.0 73:0.0 74:0.0 75:0.0 76:0.0 77:0.0 78:1.0 79:1.0 80:1.0 81:0.0 82:1.0 83:1.0 84:0.0 85:1.0 86:0.0 87:1.0 88:1.0 89:1.0 90:0.0 91:0.0 92:0.0 93:1.0 94:1.0 95:1.0 96:1.0 97:1.0 98:0.0 99:0.0 100:0.0 
0.0 0.0 0.0 0.0 0.0 0.0 0.0 0.0 0.0479396852199613 0.0 0.0 0.0 0.03888448976931536 0.0 0.0 0.009488865878394849 0.0 0.0 0.0 0.0 0.0 0.0 0.0 0.0 0.0 0.0 0.0 0.0 0.0 0.0 0.0 0.0 0.0 0.0 0.0 1:0.0 2:0.0 3:0.0 4:0.0 5:0.0 6:1.0 7:1.0 8:1.0 9:0.0 10:0.0 11:0.0 12:0.0 13:1.0 14:1.0 15:1.0 16:1.0 17:1.0 18:1.0 19:1.0 20:0.0 21:0.0 22:0.0 23:1.0 24:1.0 25:1.0 26:1.0 27:1.0 28:1.0 29:1.0 30:0.0 31:0.0 32:1.0 33:1.0 34:1.0 35:1.0 36:0.0 37:0.0 38:0.0 39:1.0 40:1.0 41:0.0 42:1.0 43:1.0 44:0.0 45:0.0 46:0.0 47:0.0 48:0.0 49:0.0 50:0.0 51:0.0 52:1.0 53:0.0 54:0.0 55:0.0 56:0.0 57:0.0 58:0.0 59:1.0 60:1.0 61:1.0 62:1.0 63:0.0 64:0.0 65:0.0 66:0.0 67:1.0 68:1.0 69:1.0 70:0.0 71:1.0 72:1.0 73:0.0 74:0.0 75:0.0 76:0.0 77:1.0 78:1.0 79:1.0 80:0.0 81:0.0 82:1.0 83:1.0 84:1.0 85:1.0 86:1.0 87:0.0 88:0.0 89:0.0 90:0.0 91:0.0 92:0.0 93:0.0 94:1.0 95:1.0 96:0.0 97:0.0 98:0.0 99:0.0 100:0.0 
0.6824934425010399 0.18891780462309263 0.5307309025912588 0.17016782151442933 0.3389529456344511 0.3477851022563622 0.26171457573116 0.36826961477727593 0.5809170196947235 0.12143903920738708 0.23067257762425927 0.3660570342708071 0.2922024582822973 0.15312087273960667 0.3658138663931083 0.40244996682937334 0.20016673910176613 0.22501328382272015 0.14673105063295522 0.2247218009787618 0.35963535118150614 0.3444438137347471 0.132421978028646 0.6693678599737712 0.202625094531093 0.2199454414786167 0.24781393571214086 0.22770887829188788 0.16055098459231762 0.3605931419003069 0.26298195832799887 0.37931212652214724 0.3088033150568489 0.30148327753708154 0.6483630278079953 1:0.0 2:0.0 3:0.0 4:0.0 5:0.0 6:0.0 7:0.0 8:1.0 9:0.0 10:0.0 11:0.0 12:0.0 13:0.0 14:1.0 15:1.0 16:0.0 17:1.0 18:1.0 19:1.0 20:0.0 21:1.0 22:1.0 23:1.0 24:1.0 25:1.0 26:1.0 27:1.0 28:0.0 29:1.0 30:1.0 31:1.0 32:1.0 33:1.0 34:0.0 35:0.0 36:0.0 37:0.0 38:0.0 39:0.0 40:1.0 41:0.0 42:0.0 43:0.0 44:0.0 45:0.0 46:0.0 47:0.0 48:0.0 49:0.0 50:1.0 51:0.0 52:0.0 53:0.0 54:0.0 55:0.0 56:0.0 57:0.0 58:0.0 59:0.0 60:1.0 61:1.0 62:0.0 63:0.0 64:0.0 65:0.0 66:0.0 67:0.0 68:1.0 69:1.0 70:1.0 71:1.0 72:1.0 73:0.0 74:0.0 75:1.0 76:1.0 77:1.0 78:1.0 79:1.0 80:1.0 81:0.0 82:1.0 83:1.0 84:1.0 85:1.0 86:1.0 87:1.0 88:1.0 89:0.0 90:0.0 91:0.0 92:0.0 93:1.0 94:1.0 95:0.0 96:0.0 97:0.0 98:0.0 99:0.0 100:0.0 
0.0 0.0 0.0 0.0 0.0 0.0 0.0 0.0 0.0 0.0 0.0 0.0 0.0 0.0 0.0 0.0 0.12595426695773965 0.0 0.0 0.0 0.0 0.0 0.0 0.0 0.0 0.0 0.0 0.0 0.0 0.0 0.0 0.0 0.0 0.0 0.0 1:0.0 2:0.0 3:0.0 4:0.0 5:0.0 6:0.0 7:1.0 8:0.0 9:0.0 10:0.0 11:0.0 12:1.0 13:1.0 14:1.0 15:1.0 16:1.0 17:1.0 18:1.0 19:1.0 20:0.0 21:0.0 22:1.0 23:1.0 24:1.0 25:1.0 26:1.0 27:1.0 28:1.0 29:1.0 30:0.0 31:0.0 32:1.0 33:1.0 34:1.0 35:1.0 36:1.0 37:1.0 38:0.0 39:1.0 40:1.0 41:1.0 42:1.0 43:0.0 44:0.0 45:0.0 46:0.0 47:0.0 48:0.0 49:0.0 50:1.0 51:1.0 52:0.0 53:0.0 54:0.0 55:0.0 56:0.0 57:0.0 58:0.0 59:0.0 60:1.0 61:1.0 62:1.0 63:0.0 64:0.0 65:0.0 66:0.0 67:0.0 68:1.0 69:1.0 70:1.0 71:1.0 72:1.0 73:0.0 74:0.0 75:0.0 76:0.0 77:0.0 78:1.0 79:1.0 80:1.0 81:0.0 82:1.0 83:1.0 84:0.0 85:1.0 86:1.0 87:1.0 88:1.0 89:1.0 90:0.0 91:0.0 92:0.0 93:1.0 94:1.0 95:1.0 96:1.0 97:1.0 98:0.0 99:0.0 100:0.0 
0.0 0.0 0.0 0.05947142764239909 0.0 0.03207911437758941 0.011819301794225438 0.0 0.0 0.01878482925954398 0.0 0.0 0.07024278543924932 0.026754406885114695 0.0 0.0 0.0 0.0 0.030557962536426064 0.0 0.0 0.0 0.011077654174770784 0.0 0.011928863395805124 0.10841151517370391 0.011696145666033842 0.005476126070665883 0.016738966829729314 0.0 0.0 0.0 0.09597831798654798 0.0 0.0 1:0.0 2:0.0 3:0.0 4:1.0 5:1.0 6:1.0 7:1.0 8:1.0 9:0.0 10:0.0 11:0.0 12:1.0 13:1.0 14:1.0 15:1.0 16:1.0 17:1.0 18:1.0 19:1.0 20:0.0 21:0.0 22:1.0 23:1.0 24:1.0 25:1.0 26:1.0 27:1.0 28:1.0 29:1.0 30:0.0 31:0.0 32:1.0 33:1.0 34:0.0 35:0.0 36:0.0 37:0.0 38:0.0 39:1.0 40:1.0 41:1.0 42:1.0 43:0.0 44:0.0 45:0.0 46:0.0 47:0.0 48:0.0 49:1.0 50:0.0 51:1.0 52:0.0 53:0.0 54:0.0 55:0.0 56:0.0 57:0.0 58:1.0 59:1.0 60:0.0 61:0.0 62:1.0 63:1.0 64:1.0 65:1.0 66:1.0 67:1.0 68:1.0 69:1.0 70:0.0 71:0.0 72:1.0 73:0.0 74:1.0 75:1.0 76:0.0 77:1.0 78:1.0 79:1.0 80:0.0 81:0.0 82:0.0 83:1.0 84:1.0 85:1.0 86:1.0 87:1.0 88:0.0 89:0.0 90:0.0 91:0.0 92:0.0 93:0.0 94:1.0 95:0.0 96:0.0 97:0.0 98:0.0 99:0.0 100:0.0 
0.1937237516196108 0.0 0.11343345889553584 0.1982880580540898 0.0 0.1880933780205414 0.2226594502122459 0.0 0.0831904041635409 0.051118738532255625 0.055805070983639474 0.0 0.04112146602775136 0.10119639298674318 0.10080805920841723 0.09152282198209025 0.0 0.15094268969979288 0.1191152303150974 0.13552507163520625 0.02594059344215176 0.051072496317235545 0.04708720868218714 0.19242979817913367 0.12353905372784943 0.08209873960192124 0.027319798473832965 0.12828443019563202 0.05260996629516107 0.0 0.0 0.08787729365838556 0.3368762395808245 0.09757805882290921 0.34643377615253323 1:0.0 2:0.0 3:0.0 4:0.0 5:1.0 6:1.0 7:1.0 8:1.0 9:0.0 10:0.0 11:0.0 12:1.0 13:1.0 14:1.0 15:1.0 16:0.0 17:1.0 18:1.0 19:1.0 20:0.0 21:0.0 22:1.0 23:1.0 24:1.0 25:1.0 26:1.0 27:1.0 28:1.0 29:1.0 30:0.0 31:1.0 32:1.0 33:1.0 34:1.0 35:0.0 36:0.0 37:0.0 38:0.0 39:1.0 40:0.0 41:1.0 42:0.0 43:0.0 44:0.0 45:0.0 46:0.0 47:0.0 48:0.0 49:1.0 50:1.0 51:1.0 52:0.0 53:0.0 54:0.0 55:0.0 56:0.0 57:0.0 58:0.0 59:1.0 60:0.0 61:1.0 62:0.0 63:0.0 64:0.0 65:1.0 66:1.0 67:1.0 68:1.0 69:0.0 70:0.0 71:1.0 72:0.0 73:0.0 74:0.0 75:1.0 76:1.0 77:1.0 78:1.0 79:0.0 80:0.0 81:1.0 82:0.0 83:1.0 84:0.0 85:1.0 86:1.0 87:1.0 88:0.0 89:0.0 90:0.0 91:0.0 92:0.0 93:1.0 94:1.0 95:1.0 96:0.0 97:0.0 98:0.0 99:0.0 100:0.0 
0.0 0.0 0.0 0.28230709280348093 0.0 0.0 0.0 0.6711854520870734 0.01237704066589408 0.0 0.0 0.0070102592253810355 0.0 0.0 0.0 0.0 0.24889636708696428 0.0 0.10925316393725616 0.0 0.0 0.0 0.0 0.1495381571376018 0.0 0.0 0.0 0.0 0.0 0.0 0.0 0.0 0.13005686860686838 0.0 0.0 1:0.0 2:0.0 3:0.0 4:0.0 5:0.0 6:0.0 7:0.0 8:1.0 9:0.0 10:0.0 11:0.0 12:0.0 13:1.0 14:1.0 15:1.0 16:1.0 17:1.0 18:1.0 19:1.0 20:0.0 21:1.0 22:1.0 23:1.0 24:1.0 25:1.0 26:1.0 27:1.0 28:0.0 29:1.0 30:1.0 31:1.0 32:1.0 33:0.0 34:0.0 35:0.0 36:0.0 37:0.0 38:0.0 39:0.0 40:1.0 41:1.0 42:0.0 43:0.0 44:0.0 45:0.0 46:0.0 47:0.0 48:0.0 49:0.0 50:1.0 51:1.0 52:0.0 53:0.0 54:0.0 55:0.0 56:0.0 57:0.0 58:0.0 59:0.0 60:1.0 61:1.0 62:0.0 63:0.0 64:0.0 65:0.0 66:0.0 67:0.0 68:1.0 69:1.0 70:1.0 71:1.0 72:1.0 73:1.0 74:1.0 75:1.0 76:1.0 77:1.0 78:1.0 79:1.0 80:0.0 81:0.0 82:1.0 83:1.0 84:1.0 85:1.0 86:1.0 87:1.0 88:0.0 89:0.0 90:0.0 91:0.0 92:0.0 93:1.0 94:0.0 95:0.0 96:0.0 97:0.0 98:0.0 99:0.0 100:0.0 
1.7309636751205661 0.8512121842813742 0.8640046128212426 0.7279362646153543 0.7932499500542135 0.8758478827875241 0.867600108365885 1.1438094107318892 0.9217221527464066 0.6802810695145993 1.1575796788180115 0.9953313946193195 0.8290688009666132 0.8159787210416617 1.2185589224046167 0.920414236912714 0.7124273498549125 0.6139661198459869 0.9221159692362814 0.7508040837139806 1.0906758440627484 1.6836309030931267 0.7728530289739236 1.1541473150415804 0.9174641290118442 1.0392314082616099 0.9078870776592444 0.8015540453408034 0.9131102310398601 1.4999067861633055 0.9599615845911614 1.4717435852679197 0.7889195462612699 1.7842546701472763 1.0172171290867755 1:0.0 2:1.0 3:1.0 4:0.0 5:0.0 6:0.0 7:0.0 8:0.0 9:0.0 10:0.0 11:0.0 12:1.0 13:1.0 14:0.0 15:0.0 16:0.0 17:0.0 18:0.0 19:0.0 20:0.0 21:0.0 22:1.0 23:1.0 24:0.0 25:0.0 26:0.0 27:0.0 28:0.0 29:0.0 30:0.0 31:1.0 32:0.0 33:0.0 34:0.0 35:0.0 36:0.0 37:0.0 38:0.0 39:0.0 40:0.0 41:1.0 42:0.0 43:0.0 44:0.0 45:0.0 46:0.0 47:0.0 48:0.0 49:0.0 50:0.0 51:1.0 52:0.0 53:0.0 54:0.0 55:0.0 56:0.0 57:0.0 58:1.0 59:1.0 60:0.0 61:1.0 62:0.0 63:0.0 64:0.0 65:0.0 66:0.0 67:0.0 68:0.0 69:1.0 70:0.0 71:1.0 72:1.0 73:1.0 74:0.0 75:1.0 76:1.0 77:1.0 78:1.0 79:0.0 80:1.0 81:0.0 82:1.0 83:0.0 84:1.0 85:0.0 86:0.0 87:1.0 88:0.0 89:0.0 90:0.0 91:0.0 92:1.0 93:0.0 94:1.0 95:0.0 96:0.0 97:1.0 98:0.0 99:0.0 100:0.0 
0.0 0.0 0.0 0.0 0.0 0.0 0.0 0.0 0.0 0.0 0.0 0.0 0.0 0.0 0.0 0.0 0.0 0.03315453254875224 0.0 0.0 0.0 0.0 0.0 0.0 0.0 0.0 0.0 0.0 0.0 0.0 0.0 0.0 0.0 0.0 0.0 1:0.0 2:0.0 3:0.0 4:0.0 5:0.0 6:1.0 7:1.0 8:0.0 9:0.0 10:0.0 11:0.0 12:0.0 13:1.0 14:1.0 15:1.0 16:1.0 17:1.0 18:1.0 19:1.0 20:0.0 21:0.0 22:0.0 23:1.0 24:1.0 25:1.0 26:1.0 27:1.0 28:1.0 29:1.0 30:0.0 31:0.0 32:1.0 33:1.0 34:1.0 35:1.0 36:0.0 37:0.0 38:0.0 39:1.0 40:1.0 41:0.0 42:1.0 43:1.0 44:0.0 45:0.0 46:0.0 47:0.0 48:0.0 49:1.0 50:1.0 51:0.0 52:1.0 53:0.0 54:0.0 55:0.0 56:0.0 57:0.0 58:0.0 59:0.0 60:0.0 61:1.0 62:1.0 63:0.0 64:0.0 65:0.0 66:0.0 67:1.0 68:1.0 69:1.0 70:0.0 71:1.0 72:1.0 73:0.0 74:0.0 75:0.0 76:0.0 77:1.0 78:1.0 79:1.0 80:0.0 81:0.0 82:1.0 83:1.0 84:1.0 85:1.0 86:1.0 87:1.0 88:0.0 89:0.0 90:0.0 91:0.0 92:0.0 93:0.0 94:1.0 95:1.0 96:0.0 97:0.0 98:0.0 99:0.0 100:0.0 
0.0 0.0 0.01636210903951525 0.0 0.0 0.0 0.0 0.1746623815542704 0.0 0.0 0.0 0.0 0.0 0.007195883361485856 0.0 0.029524857567868983 0.0 0.0 0.0 0.043486591402453784 0.24429477155811666 0.0 0.0 0.024855102680688586 0.0 0.0 0.0 0.0 0.0 0.0 0.0 0.0 0.1314722975399571 0.0 0.15319320577011591 1:0.0 2:0.0 3:0.0 4:0.0 5:0.0 6:1.0 7:1.0 8:1.0 9:0.0 10:0.0 11:0.0 12:1.0 13:1.0 14:1.0 15:1.0 16:1.0 17:1.0 18:1.0 19:0.0 20:0.0 21:0.0 22:1.0 23:1.0 24:1.0 25:1.0 26:0.0 27:1.0 28:1.0 29:1.0 30:0.0 31:1.0 32:1.0 33:1.0 34:1.0 35:1.0 36:0.0 37:0.0 38:0.0 39:1.0 40:0.0 41:1.0 42:1.0 43:0.0 44:0.0 45:0.0 46:0.0 47:0.0 48:0.0 49:1.0 50:1.0 51:1.0 52:0.0 53:0.0 54:0.0 55:0.0 56:0.0 57:0.0 58:0.0 59:1.0 60:0.0 61:1.0 62:0.0 63:0.0 64:0.0 65:0.0 66:1.0 67:1.0 68:1.0 69:0.0 70:0.0 71:1.0 72:0.0 73:0.0 74:0.0 75:0.0 76:1.0 77:1.0 78:1.0 79:0.0 80:0.0 81:1.0 82:0.0 83:1.0 84:1.0 85:1.0 86:1.0 87:1.0 88:1.0 89:1.0 90:0.0 91:0.0 92:0.0 93:1.0 94:0.0 95:1.0 96:0.0 97:0.0 98:0.0 99:0.0 100:0.0 
0.52942854160249 0.6937237346874627 0.7568066227649901 0.5003717071712735 0.7892217435193768 0.5285322584081089 0.4711782380687289 1.2127678387498941 0.44184064201965706 0.365205190326791 0.6663137540099926 0.8160037702524311 0.49302833757130343 0.5221502990188689 0.6590050220701704 0.44837370367175283 0.8413218761614882 0.37697635048321626 0.33252908135644804 0.4979336453784535 0.6197729305177411 0.8664747109225674 0.37254477458605906 0.5628858204008214 0.36865396747171086 0.4719004639594576 0.4576413041768898 0.3847087357608112 0.6264873773371107 1.2580221746209352 0.6770330083536534 0.9533407594295902 0.5573138957583117 0.5858864958211314 0.8259593057291322 1:0.0 2:0.0 3:0.0 4:0.0 5:0.0 6:0.0 7:1.0 8:0.0 9:0.0 10:0.0 11:0.0 12:0.0 13:0.0 14:0.0 15:0.0 16:0.0 17:1.0 18:1.0 19:1.0 20:0.0 21:0.0 22:0.0 23:0.0 24:0.0 25:0.0 26:0.0 27:1.0 28:1.0 29:1.0 30:0.0 31:0.0 32:0.0 33:0.0 34:0.0 35:0.0 36:0.0 37:0.0 38:0.0 39:1.0 40:0.0 41:1.0 42:0.0 43:0.0 44:0.0 45:0.0 46:0.0 47:0.0 48:0.0 49:0.0 50:1.0 51:1.0 52:0.0 53:0.0 54:0.0 55:0.0 56:0.0 57:0.0 58:0.0 59:0.0 60:1.0 61:1.0 62:0.0 63:0.0 64:0.0 65:0.0 66:0.0 67:0.0 68:0.0 69:1.0 70:1.0 71:0.0 72:0.0 73:1.0 74:0.0 75:0.0 76:1.0 77:1.0 78:1.0 79:1.0 80:0.0 81:0.0 82:1.0 83:1.0 84:0.0 85:0.0 86:1.0 87:1.0 88:1.0 89:1.0 90:0.0 91:0.0 92:0.0 93:1.0 94:1.0 95:1.0 96:1.0 97:0.0 98:1.0 99:1.0 100:0.0 
0.0 0.0 0.0 0.0 0.003868074405848024 0.0 0.0 0.0 0.0 0.0 0.0 0.0 0.0 0.0 0.0 0.0 0.0 0.0 0.0 0.0 0.0 0.0 0.0 0.0 0.0 0.0 0.0 0.0 0.010510495092039112 0.0 0.0 0.0 0.047731615778947 0.0 0.0 1:0.0 2:0.0 3:0.0 4:0.0 5:0.0 6:1.0 7:1.0 8:1.0 9:0.0 10:0.0 11:0.0 12:0.0 13:0.0 14:1.0 15:1.0 16:1.0 17:1.0 18:1.0 19:1.0 20:0.0 21:0.0 22:0.0 23:0.0 24:1.0 25:1.0 26:1.0 27:1.0 28:1.0 29:1.0 30:0.0 31:0.0 32:1.0 33:1.0 34:1.0 35:0.0 36:0.0 37:0.0 38:0.0 39:1.0 40:1.0 41:0.0 42:1.0 43:0.0 44:0.0 45:0.0 46:0.0 47:0.0 48:0.0 49:0.0 50:0.0 51:1.0 52:1.0 53:0.0 54:0.0 55:0.0 56:0.0 57:0.0 58:0.0 59:1.0 60:1.0 61:0.0 62:1.0 63:1.0 64:0.0 65:0.0 66:1.0 67:0.0 68:1.0 69:1.0 70:0.0 71:0.0 72:0.0 73:1.0 74:0.0 75:0.0 76:1.0 77:1.0 78:1.0 79:1.0 80:0.0 81:0.0 82:0.0 83:1.0 84:0.0 85:1.0 86:1.0 87:1.0 88:1.0 89:0.0 90:0.0 91:0.0 92:0.0 93:0.0 94:1.0 95:1.0 96:0.0 97:0.0 98:0.0 99:0.0 100:0.0 
0.26341560669317365 0.10844549111691762 0.2656686596097089 0.18543263172424757 0.18256424465209542 0.18233214869426334 0.060030828831708766 0.2511895893987841 0.08437256860624077 0.1256372860591202 0.1317062752853457 0.15586209220127245 0.08516925872584334 0.12190897810665965 0.1458690481934807 0.0 0.0 0.079713003819238 0.2838730212230437 0.05901947672277904 0.33443598339853314 0.05819687985577943 0.04743105592297763 0.2579581211854766 0.05143693488503706 0.11296456702628668 0.13274590503091346 0.08207142913563027 0.08809162870342488 0.009820132448151274 0.3562335910824159 0.11426229535746596 0.1242822739955132 0.09368424822259566 0.6567642170781274 1:0.0 2:0.0 3:0.0 4:0.0 5:0.0 6:0.0 7:0.0 8:1.0 9:0.0 10:0.0 11:0.0 12:0.0 13:0.0 14:0.0 15:1.0 16:1.0 17:1.0 18:1.0 19:0.0 20:0.0 21:0.0 22:0.0 23:0.0 24:0.0 25:1.0 26:1.0 27:1.0 28:1.0 29:0.0 30:0.0 31:0.0 32:1.0 33:1.0 34:1.0 35:1.0 36:1.0 37:1.0 38:1.0 39:1.0 40:0.0 41:1.0 42:0.0 43:1.0 44:1.0 45:0.0 46:0.0 47:0.0 48:0.0 49:0.0 50:1.0 51:1.0 52:1.0 53:0.0 54:0.0 55:0.0 56:0.0 57:0.0 58:0.0 59:1.0 60:1.0 61:1.0 62:0.0 63:0.0 64:0.0 65:0.0 66:1.0 67:1.0 68:0.0 69:1.0 70:1.0 71:1.0 72:0.0 73:0.0 74:0.0 75:0.0 76:1.0 77:1.0 78:0.0 79:1.0 80:1.0 81:0.0 82:1.0 83:1.0 84:1.0 85:1.0 86:0.0 87:1.0 88:1.0 89:0.0 90:0.0 91:0.0 92:0.0 93:1.0 94:1.0 95:1.0 96:0.0 97:0.0 98:0.0 99:0.0 100:0.0 
0.0 0.0 0.3427533740356211 0.0 0.40637013641879205 0.0 0.0 0.0 0.0 0.0 0.0 0.0 0.0 0.0 0.0 0.0 0.0 0.10868599928843935 0.0 0.018667448164980827 0.18591494335467829 0.0 0.0 0.0 0.0 0.0 0.0 0.0 0.0 0.0 0.0 0.0 0.0 0.0 0.48598589833197586 1:0.0 2:0.0 3:0.0 4:0.0 5:0.0 6:0.0 7:0.0 8:1.0 9:0.0 10:0.0 11:0.0 12:0.0 13:0.0 14:0.0 15:1.0 16:1.0 17:0.0 18:1.0 19:1.0 20:0.0 21:0.0 22:1.0 23:1.0 24:1.0 25:1.0 26:1.0 27:1.0 28:1.0 29:1.0 30:1.0 31:1.0 32:1.0 33:1.0 34:1.0 35:1.0 36:0.0 37:0.0 38:0.0 39:0.0 40:1.0 41:1.0 42:1.0 43:0.0 44:0.0 45:0.0 46:0.0 47:0.0 48:0.0 49:0.0 50:1.0 51:1.0 52:1.0 53:0.0 54:0.0 55:0.0 56:0.0 57:0.0 58:0.0 59:0.0 60:1.0 61:1.0 62:0.0 63:0.0 64:0.0 65:0.0 66:0.0 67:0.0 68:0.0 69:1.0 70:1.0 71:0.0 72:1.0 73:0.0 74:0.0 75:0.0 76:1.0 77:1.0 78:1.0 79:1.0 80:0.0 81:0.0 82:1.0 83:1.0 84:1.0 85:1.0 86:1.0 87:1.0 88:1.0 89:1.0 90:0.0 91:0.0 92:0.0 93:1.0 94:1.0 95:1.0 96:0.0 97:0.0 98:0.0 99:0.0 100:0.0 
0.0 0.0 0.0 0.0 0.0 0.0 0.0 0.0 0.0 0.0 0.0 0.0 0.0 0.0 0.0 0.0 0.0 0.0 0.0 0.0 0.0 0.0 0.0 0.0 0.0 0.0 0.0 0.0 0.0 0.0 0.0 0.0 0.09585031114655496 0.0 0.0 1:0.0 2:0.0 3:0.0 4:0.0 5:0.0 6:1.0 7:1.0 8:1.0 9:0.0 10:0.0 11:0.0 12:0.0 13:1.0 14:1.0 15:1.0 16:1.0 17:1.0 18:1.0 19:1.0 20:0.0 21:0.0 22:0.0 23:0.0 24:1.0 25:1.0 26:1.0 27:1.0 28:1.0 29:1.0 30:0.0 31:0.0 32:1.0 33:1.0 34:1.0 35:1.0 36:0.0 37:0.0 38:0.0 39:1.0 40:1.0 41:0.0 42:1.0 43:0.0 44:0.0 45:0.0 46:0.0 47:0.0 48:0.0 49:1.0 50:1.0 51:0.0 52:1.0 53:0.0 54:0.0 55:0.0 56:0.0 57:0.0 58:0.0 59:1.0 60:0.0 61:1.0 62:1.0 63:0.0 64:0.0 65:0.0 66:1.0 67:1.0 68:1.0 69:1.0 70:0.0 71:1.0 72:1.0 73:0.0 74:0.0 75:0.0 76:1.0 77:1.0 78:1.0 79:1.0 80:0.0 81:0.0 82:1.0 83:0.0 84:1.0 85:1.0 86:1.0 87:1.0 88:1.0 89:0.0 90:0.0 91:0.0 92:0.0 93:0.0 94:1.0 95:1.0 96:0.0 97:0.0 98:0.0 99:0.0 100:0.0 
0.0 0.0 0.0 0.08704219938416577 0.0 0.0 0.0 0.0 0.0 0.008547067427738569 0.0 0.12304449337016117 0.0 0.028449610589031123 0.0 0.0627558376362555 0.025886212133802645 0.0 0.0 0.0 0.0 0.0 0.004565740505392922 0.10680175642660572 0.0 0.0 0.020606095295283906 0.0 0.0 0.0 0.0 0.0 0.8346659998035414 0.0 0.0 1:0.0 2:0.0 3:0.0 4:0.0 5:0.0 6:1.0 7:1.0 8:1.0 9:0.0 10:0.0 11:0.0 12:0.0 13:1.0 14:1.0 15:1.0 16:1.0 17:1.0 18:1.0 19:1.0 20:0.0 21:0.0 22:0.0 23:1.0 24:1.0 25:1.0 26:1.0 27:1.0 28:1.0 29:1.0 30:0.0 31:0.0 32:1.0 33:1.0 34:1.0 35:0.0 36:0.0 37:0.0 38:0.0 39:0.0 40:1.0 41:0.0 42:1.0 43:1.0 44:0.0 45:0.0 46:0.0 47:0.0 48:0.0 49:1.0 50:1.0 51:0.0 52:1.0 53:0.0 54:0.0 55:0.0 56:0.0 57:0.0 58:0.0 59:1.0 60:1.0 61:1.0 62:1.0 63:0.0 64:0.0 65:0.0 66:0.0 67:1.0 68:1.0 69:1.0 70:0.0 71:1.0 72:1.0 73:0.0 74:0.0 75:0.0 76:0.0 77:1.0 78:1.0 79:1.0 80:0.0 81:0.0 82:0.0 83:1.0 84:1.0 85:1.0 86:1.0 87:1.0 88:0.0 89:0.0 90:0.0 91:0.0 92:0.0 93:0.0 94:0.0 95:1.0 96:0.0 97:0.0 98:0.0 99:0.0 100:0.0 
0.17874417024203523 0.0 0.009958736072370805 0.0 0.0 0.0 0.0 0.0 0.0 0.0 0.0 0.0 0.0 0.0 0.0 0.0 0.0 0.0 0.0 0.0 0.0 0.0 0.0 0.0 0.0 0.0 0.0 0.0 0.0 0.0 0.0 0.0 0.0 0.0 0.502205589387986 1:0.0 2:0.0 3:0.0 4:0.0 5:0.0 6:0.0 7:1.0 8:1.0 9:0.0 10:0.0 11:0.0 12:0.0 13:1.0 14:1.0 15:1.0 16:1.0 17:1.0 18:1.0 19:1.0 20:1.0 21:0.0 22:0.0 23:1.0 24:1.0 25:1.0 26:1.0 27:1.0 28:1.0 29:1.0 30:1.0 31:0.0 32:1.0 33:1.0 34:1.0 35:1.0 36:1.0 37:1.0 38:0.0 39:0.0 40:1.0 41:1.0 42:1.0 43:0.0 44:0.0 45:0.0 46:0.0 47:0.0 48:0.0 49:0.0 50:1.0 51:1.0 52:1.0 53:0.0 54:0.0 55:0.0 56:0.0 57:0.0 58:0.0 59:0.0 60:1.0 61:0.0 62:0.0 63:0.0 64:0.0 65:0.0 66:0.0 67:0.0 68:1.0 69:1.0 70:1.0 71:0.0 72:1.0 73:0.0 74:1.0 75:1.0 76:1.0 77:1.0 78:1.0 79:1.0 80:1.0 81:0.0 82:1.0 83:1.0 84:1.0 85:1.0 86:1.0 87:1.0 88:1.0 89:1.0 90:1.0 91:0.0 92:0.0 93:1.0 94:1.0 95:1.0 96:1.0 97:1.0 98:0.0 99:0.0 100:0.0 
0.5231462103676263 0.09486621740848176 0.22772186561835592 0.19839696683932767 0.2500264544376541 0.18657997626666914 0.3066140351558333 0.0 0.5569781780773422 0.08128489642819949 0.16291929824848042 0.45629769011401083 0.23710600952635127 0.10191407217960217 0.24086529706935553 0.3342714808267015 0.3291652748864436 0.16697264974569903 0.13640805145959164 0.26030374586015687 0.10983270142050633 0.3364392447122524 0.07086630430503855 0.6581803165279065 0.20348401904714983 0.2107434888662023 0.12330179947115491 0.17250132452226463 0.1941122251891479 0.2609188050191048 0.16485898775679012 0.24994903052606876 0.2684171103853113 0.3201393482028463 0.6167803761780626 1:0.0 2:0.0 3:0.0 4:0.0 5:0.0 6:0.0 7:0.0 8:1.0 9:0.0 10:0.0 11:0.0 12:0.0 13:1.0 14:0.0 15:1.0 16:1.0 17:1.0 18:1.0 19:1.0 20:0.0 21:1.0 22:1.0 23:1.0 24:1.0 25:1.0 26:1.0 27:1.0 28:0.0 29:1.0 30:1.0 31:1.0 32:1.0 33:0.0 34:0.0 35:0.0 36:0.0 37:0.0 38:0.0 39:0.0 40:0.0 41:1.0 42:0.0 43:0.0 44:0.0 45:0.0 46:0.0 47:0.0 48:0.0 49:0.0 50:1.0 51:1.0 52:0.0 53:0.0 54:0.0 55:0.0 56:0.0 57:0.0 58:0.0 59:0.0 60:1.0 61:1.0 62:0.0 63:0.0 64:0.0 65:0.0 66:0.0 67:0.0 68:1.0 69:1.0 70:0.0 71:1.0 72:1.0 73:1.0 74:1.0 75:1.0 76:1.0 77:1.0 78:1.0 79:1.0 80:0.0 81:0.0 82:1.0 83:1.0 84:1.0 85:1.0 86:1.0 87:1.0 88:0.0 89:0.0 90:0.0 91:0.0 92:0.0 93:1.0 94:0.0 95:0.0 96:0.0 97:0.0 98:0.0 99:0.0 100:0.0 
0.0 0.1076902280761517 0.0 0.0 0.0 0.028280972515347315 0.0028454211979641493 0.015404957573130134 0.07721039429504417 0.04931231063998559 0.16067673802304244 0.12804139471943968 0.09472554534252987 0.05369523012384958 0.06633275523012379 0.02652405393062414 0.0 0.0 0.06380494769812997 0.03810426221352119 0.1577342599497788 0.07764967529236683 0.034000153023132716 0.028033071129926913 0.06831726655598942 0.09118027018836322 0.08030054017499225 0.0333734764821035 0.04864710441967561 0.046787485470420304 0.054147821894128506 0.0597073008768809 0.0 0.016068105414425365 0.04944938024701448 1:0.0 2:0.0 3:0.0 4:0.0 5:1.0 6:0.0 7:1.0 8:1.0 9:0.0 10:0.0 11:0.0 12:1.0 13:1.0 14:1.0 15:0.0 16:1.0 17:1.0 18:1.0 19:1.0 20:0.0 21:0.0 22:1.0 23:1.0 24:1.0 25:0.0 26:1.0 27:1.0 28:1.0 29:1.0 30:0.0 31:0.0 32:1.0 33:0.0 34:1.0 35:0.0 36:0.0 37:0.0 38:0.0 39:1.0 40:0.0 41:0.0 42:0.0 43:0.0 44:0.0 45:0.0 46:0.0 47:0.0 48:0.0 49:1.0 50:1.0 51:1.0 52:1.0 53:0.0 54:0.0 55:0.0 56:0.0 57:0.0 58:1.0 59:1.0 60:0.0 61:1.0 62:0.0 63:1.0 64:0.0 65:0.0 66:1.0 67:1.0 68:1.0 69:1.0 70:0.0 71:1.0 72:1.0 73:1.0 74:0.0 75:0.0 76:1.0 77:1.0 78:1.0 79:1.0 80:0.0 81:0.0 82:0.0 83:1.0 84:0.0 85:0.0 86:1.0 87:1.0 88:0.0 89:0.0 90:0.0 91:0.0 92:0.0 93:0.0 94:1.0 95:1.0 96:0.0 97:0.0 98:0.0 99:0.0 100:0.0 
0.426123648424543 0.11901996104014906 0.3432316384236121 0.228321245519442 0.40687480905441886 0.300017763594103 0.24933892741677774 0.026501671146176724 0.2658070739545142 0.17337483735677406 0.22820877843623213 0.13379823992202178 0.3508922088082895 0.23232776442532507 0.5080994740365021 0.17417703690016328 0.06493983269579048 0.4449136023714138 0.10499828899272384 0.22259401028022896 0.0 0.2360836290784698 0.2236305183853009 0.5195496860774248 0.37651132454413916 0.3581864695324232 0.23023576715786798 0.37710139411877186 0.26003893056490607 0.03791276117329201 0.345528830984522 0.25403217497122843 0.21336318765379644 0.3071066756117559 0.0 1:0.0 2:0.0 3:0.0 4:0.0 5:0.0 6:0.0 7:1.0 8:0.0 9:0.0 10:0.0 11:0.0 12:0.0 13:1.0 14:1.0 15:1.0 16:1.0 17:1.0 18:1.0 19:0.0 20:0.0 21:0.0 22:0.0 23:1.0 24:1.0 25:1.0 26:1.0 27:1.0 28:1.0 29:0.0 30:0.0 31:0.0 32:1.0 33:1.0 34:1.0 35:1.0 36:1.0 37:1.0 38:1.0 39:1.0 40:0.0 41:0.0 42:0.0 43:0.0 44:0.0 45:0.0 46:0.0 47:0.0 48:0.0 49:1.0 50:1.0 51:0.0 52:1.0 53:0.0 54:0.0 55:0.0 56:0.0 57:0.0 58:0.0 59:1.0 60:0.0 61:0.0 62:0.0 63:0.0 64:0.0 65:0.0 66:0.0 67:0.0 68:0.0 69:1.0 70:0.0 71:1.0 72:0.0 73:0.0 74:0.0 75:0.0 76:0.0 77:0.0 78:0.0 79:1.0 80:0.0 81:0.0 82:1.0 83:1.0 84:1.0 85:1.0 86:1.0 87:0.0 88:1.0 89:0.0 90:0.0 91:0.0 92:0.0 93:1.0 94:1.0 95:1.0 96:1.0 97:1.0 98:0.0 99:0.0 100:0.0 
0.811971218594538 0.4730998696469285 0.48122764698923387 0.4337787106863043 0.408747655211916 0.605898500356995 0.5865368995300564 0.46237646959367146 0.548437266956674 0.36648248300215086 0.49688848786406525 0.500840904107921 0.5531331412691621 0.496499310224718 0.7150685197063817 0.5579519098123066 0.21790003237317393 0.42437244315096906 0.34198988565392735 0.5017757619802099 0.4845768965079828 0.7049037826971659 0.39666501152511474 0.7217297473750864 0.5403911932964469 0.5779864386234659 0.48192445113161547 0.472054122357346 0.46201127433706274 0.6416316561804296 0.5121671204353508 0.8930326382808775 1.218640344126659 0.7191605837906454 0.5973825333371449 1:0.0 2:0.0 3:0.0 4:0.0 5:1.0 6:0.0 7:1.0 8:1.0 9:0.0 10:0.0 11:0.0 12:1.0 13:1.0 14:0.0 15:0.0 16:1.0 17:0.0 18:1.0 19:0.0 20:0.0 21:0.0 22:1.0 23:1.0 24:0.0 25:1.0 26:1.0 27:0.0 28:1.0 29:0.0 30:0.0 31:1.0 32:1.0 33:1.0 34:1.0 35:0.0 36:0.0 37:0.0 38:0.0 39:1.0 40:1.0 41:0.0 42:0.0 43:0.0 44:0.0 45:0.0 46:0.0 47:0.0 48:0.0 49:1.0 50:0.0 51:1.0 52:0.0 53:0.0 54:0.0 55:0.0 56:0.0 57:0.0 58:0.0 59:1.0 60:0.0 61:1.0 62:0.0 63:0.0 64:0.0 65:0.0 66:0.0 67:0.0 68:0.0 69:0.0 70:0.0 71:1.0 72:0.0 73:0.0 74:0.0 75:1.0 76:1.0 77:1.0 78:0.0 79:1.0 80:0.0 81:1.0 82:0.0 83:0.0 84:0.0 85:1.0 86:1.0 87:1.0 88:0.0 89:1.0 90:0.0 91:1.0 92:0.0 93:1.0 94:0.0 95:1.0 96:1.0 97:0.0 98:1.0 99:0.0 100:0.0 
0.0 0.0 0.0 0.0 0.0 0.0 0.0 0.0 0.0 0.0 0.0 0.0 0.0 0.0 0.0 0.0 0.0 0.0 0.0 0.0 0.0 0.0 0.0 0.0 0.0 0.0 0.0 0.0 0.0 0.0 0.0 0.0 0.0 0.0 0.00569581603008532 1:0.0 2:0.0 3:1.0 4:1.0 5:1.0 6:1.0 7:0.0 8:1.0 9:0.0 10:0.0 11:0.0 12:1.0 13:1.0 14:0.0 15:1.0 16:1.0 17:1.0 18:1.0 19:1.0 20:0.0 21:0.0 22:1.0 23:1.0 24:1.0 25:1.0 26:1.0 27:1.0 28:1.0 29:1.0 30:0.0 31:1.0 32:1.0 33:0.0 34:0.0 35:0.0 36:0.0 37:0.0 38:0.0 39:1.0 40:1.0 41:1.0 42:0.0 43:0.0 44:0.0 45:0.0 46:0.0 47:0.0 48:0.0 49:0.0 50:1.0 51:1.0 52:0.0 53:0.0 54:0.0 55:0.0 56:0.0 57:0.0 58:0.0 59:0.0 60:1.0 61:1.0 62:1.0 63:0.0 64:0.0 65:0.0 66:0.0 67:0.0 68:0.0 69:1.0 70:1.0 71:0.0 72:1.0 73:1.0 74:1.0 75:1.0 76:1.0 77:1.0 78:1.0 79:1.0 80:0.0 81:0.0 82:1.0 83:1.0 84:1.0 85:1.0 86:0.0 87:1.0 88:1.0 89:1.0 90:0.0 91:0.0 92:0.0 93:1.0 94:1.0 95:0.0 96:1.0 97:1.0 98:1.0 99:0.0 100:0.0 
0.0 0.0 0.0 0.0 0.0 0.0 0.0 0.0 0.0 0.0 0.0 0.0 0.0 0.0 0.0 0.0 0.08105769142208788 0.0 0.0 0.0 0.0 0.0 0.0 0.0 0.0 0.0 0.0 0.0 0.0 0.0 0.0 0.0 0.6940912296555914 0.0 0.0 1:0.0 2:0.0 3:0.0 4:0.0 5:0.0 6:1.0 7:1.0 8:1.0 9:0.0 10:0.0 11:0.0 12:0.0 13:1.0 14:1.0 15:1.0 16:1.0 17:1.0 18:1.0 19:1.0 20:0.0 21:0.0 22:0.0 23:1.0 24:1.0 25:1.0 26:1.0 27:1.0 28:1.0 29:1.0 30:0.0 31:0.0 32:0.0 33:1.0 34:1.0 35:1.0 36:0.0 37:0.0 38:0.0 39:0.0 40:1.0 41:1.0 42:1.0 43:0.0 44:0.0 45:0.0 46:0.0 47:0.0 48:0.0 49:0.0 50:1.0 51:1.0 52:0.0 53:0.0 54:0.0 55:0.0 56:0.0 57:0.0 58:0.0 59:1.0 60:1.0 61:1.0 62:0.0 63:0.0 64:0.0 65:0.0 66:0.0 67:1.0 68:1.0 69:1.0 70:0.0 71:1.0 72:0.0 73:0.0 74:0.0 75:0.0 76:0.0 77:1.0 78:1.0 79:1.0 80:0.0 81:1.0 82:1.0 83:1.0 84:1.0 85:1.0 86:1.0 87:1.0 88:1.0 89:1.0 90:0.0 91:0.0 92:0.0 93:0.0 94:0.0 95:1.0 96:1.0 97:0.0 98:0.0 99:0.0 100:0.0 
0.0 0.0 0.04669926833186861 0.0 0.0 0.0 0.0 0.16106535732220098 0.0 0.0 0.0 0.0 0.0 0.0 0.0 0.0 0.20027194005218565 0.0 0.0 0.0 0.07000905012376028 0.0 0.0 0.0 0.0 0.0 0.0 0.0 0.0 0.0 0.0 0.0 0.0 0.0 0.33261487703273346 1:0.0 2:0.0 3:0.0 4:0.0 5:0.0 6:0.0 7:1.0 8:1.0 9:0.0 10:0.0 11:0.0 12:1.0 13:1.0 14:1.0 15:1.0 16:1.0 17:1.0 18:1.0 19:1.0 20:0.0 21:0.0 22:1.0 23:1.0 24:1.0 25:1.0 26:1.0 27:1.0 28:1.0 29:1.0 30:0.0 31:1.0 32:1.0 33:1.0 34:1.0 35:1.0 36:1.0 37:1.0 38:0.0 39:1.0 40:0.0 41:1.0 42:0.0 43:0.0 44:0.0 45:0.0 46:0.0 47:0.0 48:0.0 49:0.0 50:1.0 51:1.0 52:0.0 53:0.0 54:0.0 55:0.0 56:0.0 57:0.0 58:0.0 59:0.0 60:1.0 61:1.0 62:0.0 63:0.0 64:0.0 65:0.0 66:0.0 67:0.0 68:1.0 69:1.0 70:1.0 71:1.0 72:0.0 73:0.0 74:0.0 75:0.0 76:0.0 77:0.0 78:1.0 79:1.0 80:1.0 81:1.0 82:1.0 83:1.0 84:1.0 85:1.0 86:1.0 87:1.0 88:1.0 89:1.0 90:0.0 91:0.0 92:1.0 93:1.0 94:1.0 95:1.0 96:1.0 97:1.0 98:0.0 99:0.0 100:0.0 
0.3270640707683349 0.07726746971488381 0.07264759094536491 0.0 0.0 0.0 0.0 0.0 0.0 0.0032308717957294847 0.007271002275929719 0.0 0.0 0.012222621461471714 0.024779195532978172 0.004824841993885416 0.0 0.0 0.007626902453992567 0.018673892545297357 0.016319557727253742 0.019031113072653563 0.0 0.0 0.0 0.02163262919883572 0.0 0.0 0.0 0.0 0.16120758830842896 0.05229512443127655 0.6151800463119353 0.031895304426849944 0.029832899512866922 1:0.0 2:0.0 3:1.0 4:1.0 5:1.0 6:0.0 7:1.0 8:1.0 9:0.0 10:0.0 11:0.0 12:0.0 13:0.0 14:1.0 15:1.0 16:1.0 17:1.0 18:1.0 19:0.0 20:0.0 21:0.0 22:0.0 23:0.0 24:1.0 25:1.0 26:1.0 27:1.0 28:1.0 29:1.0 30:0.0 31:0.0 32:0.0 33:1.0 34:0.0 35:0.0 36:0.0 37:0.0 38:0.0 39:1.0 40:0.0 41:1.0 42:1.0 43:0.0 44:0.0 45:0.0 46:0.0 47:0.0 48:0.0 49:0.0 50:1.0 51:1.0 52:0.0 53:0.0 54:0.0 55:0.0 56:0.0 57:0.0 58:0.0 59:0.0 60:1.0 61:1.0 62:1.0 63:0.0 64:0.0 65:0.0 66:0.0 67:0.0 68:0.0 69:1.0 70:1.0 71:0.0 72:1.0 73:0.0 74:1.0 75:1.0 76:1.0 77:1.0 78:1.0 79:1.0 80:0.0 81:0.0 82:1.0 83:0.0 84:1.0 85:1.0 86:1.0 87:1.0 88:1.0 89:1.0 90:0.0 91:0.0 92:0.0 93:1.0 94:1.0 95:1.0 96:1.0 97:1.0 98:1.0 99:1.0 100:0.0 
0.0 0.0 0.0 0.0 0.0 0.0 0.0 0.0 0.0 0.0 0.0 0.0 0.0 0.0 0.0 0.0 0.0 0.0 0.0 0.0 0.0 0.0 0.0 0.0 0.0 0.0 0.0 0.0 0.0 0.004248990244036337 0.08267733739835559 0.0 0.0 0.0 0.0 1:0.0 2:0.0 3:0.0 4:0.0 5:1.0 6:1.0 7:1.0 8:1.0 9:0.0 10:0.0 11:0.0 12:0.0 13:1.0 14:1.0 15:1.0 16:1.0 17:1.0 18:1.0 19:1.0 20:0.0 21:0.0 22:0.0 23:1.0 24:1.0 25:1.0 26:1.0 27:1.0 28:0.0 29:1.0 30:0.0 31:0.0 32:0.0 33:1.0 34:1.0 35:0.0 36:0.0 37:0.0 38:0.0 39:1.0 40:1.0 41:0.0 42:1.0 43:0.0 44:0.0 45:0.0 46:0.0 47:0.0 48:0.0 49:0.0 50:0.0 51:1.0 52:1.0 53:0.0 54:0.0 55:0.0 56:0.0 57:0.0 58:0.0 59:1.0 60:1.0 61:0.0 62:1.0 63:1.0 64:0.0 65:1.0 66:1.0 67:1.0 68:1.0 69:1.0 70:0.0 71:0.0 72:1.0 73:1.0 74:0.0 75:1.0 76:1.0 77:1.0 78:1.0 79:1.0 80:0.0 81:0.0 82:0.0 83:1.0 84:1.0 85:1.0 86:1.0 87:1.0 88:1.0 89:1.0 90:0.0 91:0.0 92:0.0 93:0.0 94:1.0 95:0.0 96:0.0 97:0.0 98:0.0 99:0.0 100:0.0 
0.29100169620482996 0.1799524386491433 0.23986666125040493 0.0 0.06866802999163808 0.2156382931088648 0.2160986431324923 0.0 0.3412242550406956 0.11348911654864142 0.35660640866596843 0.1609596745838477 0.15169138684221822 0.09576129789007677 0.17840577216969283 0.09866970883431662 0.0 0.20635920221648194 0.04662809261267578 0.27964689225649375 0.0 0.28137766727163094 0.14266318208342427 0.1310427756951337 0.20381612520869274 0.16940610078195703 0.05439967510928173 0.23694997019715872 0.21018638630000266 0.39400669564729396 0.32562861802764465 0.24168683128965002 0.0 0.1867446857518235 0.1185224648066285 1:0.0 2:0.0 3:0.0 4:0.0 5:0.0 6:0.0 7:0.0 8:1.0 9:0.0 10:0.0 11:0.0 12:0.0 13:1.0 14:1.0 15:0.0 16:1.0 17:1.0 18:0.0 19:1.0 20:0.0 21:0.0 22:0.0 23:1.0 24:1.0 25:1.0 26:1.0 27:1.0 28:1.0 29:1.0 30:0.0 31:1.0 32:1.0 33:0.0 34:1.0 35:1.0 36:1.0 37:1.0 38:0.0 39:1.0 40:1.0 41:1.0 42:1.0 43:0.0 44:0.0 45:0.0 46:0.0 47:0.0 48:0.0 49:0.0 50:1.0 51:1.0 52:0.0 53:0.0 54:0.0 55:0.0 56:0.0 57:0.0 58:1.0 59:1.0 60:0.0 61:1.0 62:1.0 63:1.0 64:1.0 65:1.0 66:1.0 67:1.0 68:1.0 69:1.0 70:0.0 71:1.0 72:1.0 73:1.0 74:1.0 75:1.0 76:1.0 77:1.0 78:1.0 79:1.0 80:0.0 81:0.0 82:1.0 83:1.0 84:1.0 85:1.0 86:1.0 87:1.0 88:0.0 89:0.0 90:0.0 91:0.0 92:1.0 93:1.0 94:0.0 95:0.0 96:0.0 97:0.0 98:0.0 99:0.0 100:0.0 
0.5090667210940311 0.24336757920392751 0.6830811117211278 0.5909874114475088 0.6220308286646002 0.44097391126348684 0.2934913436308122 0.5618254380132499 0.285902596091759 0.20329054476157196 0.2215701743176917 0.17602086291753075 0.27269288175564704 0.3922656209612339 0.3597278880230135 0.1931545218500922 0.6437032220666861 0.28971045725295586 0.15080232843025249 0.2408081318238546 0.28339416834718895 0.44809588693796126 0.21154452153935013 0.47777614636386484 0.2823623659293215 0.2971181828005471 0.29033428376635423 0.25447419065863547 0.3092287200678583 0.45092199437646885 0.20311146601273075 0.6213086648967225 0.48636809598006264 0.34698174625176875 0.3915135359704362 1:0.0 2:0.0 3:0.0 4:0.0 5:0.0 6:0.0 7:0.0 8:1.0 9:0.0 10:0.0 11:0.0 12:0.0 13:1.0 14:1.0 15:1.0 16:1.0 17:0.0 18:1.0 19:0.0 20:0.0 21:0.0 22:0.0 23:1.0 24:1.0 25:1.0 26:1.0 27:0.0 28:1.0 29:0.0 30:0.0 31:0.0 32:1.0 33:1.0 34:0.0 35:1.0 36:1.0 37:1.0 38:0.0 39:1.0 40:0.0 41:1.0 42:1.0 43:0.0 44:0.0 45:0.0 46:0.0 47:0.0 48:0.0 49:0.0 50:1.0 51:1.0 52:0.0 53:0.0 54:0.0 55:0.0 56:0.0 57:0.0 58:0.0 59:0.0 60:1.0 61:1.0 62:1.0 63:0.0 64:0.0 65:0.0 66:0.0 67:0.0 68:0.0 69:0.0 70:1.0 71:1.0 72:1.0 73:0.0 74:0.0 75:0.0 76:0.0 77:0.0 78:0.0 79:1.0 80:1.0 81:0.0 82:0.0 83:1.0 84:1.0 85:1.0 86:1.0 87:1.0 88:1.0 89:1.0 90:0.0 91:0.0 92:0.0 93:1.0 94:0.0 95:1.0 96:0.0 97:1.0 98:0.0 99:0.0 100:0.0 
0.033258411955627745 0.009340365917540023 0.0 0.0 0.0 0.014473692617558797 0.0 0.0 0.015540856978288541 0.0 0.0 0.0 0.0 0.0 0.0 0.0 0.0 0.0 0.0 0.0 0.0 0.0 0.006722461352002353 0.0 0.0 0.020905731373626252 0.0 0.0 0.03582874253599579 0.1960719728911158 0.0 0.2130804390927974 0.135986524844118 0.0 0.0 1:0.0 2:0.0 3:1.0 4:0.0 5:1.0 6:1.0 7:0.0 8:1.0 9:0.0 10:0.0 11:0.0 12:1.0 13:1.0 14:1.0 15:1.0 16:0.0 17:1.0 18:1.0 19:1.0 20:0.0 21:0.0 22:0.0 23:1.0 24:1.0 25:1.0 26:1.0 27:1.0 28:1.0 29:1.0 30:0.0 31:0.0 32:1.0 33:0.0 34:0.0 35:0.0 36:0.0 37:0.0 38:0.0 39:1.0 40:1.0 41:1.0 42:1.0 43:0.0 44:0.0 45:0.0 46:0.0 47:0.0 48:0.0 49:0.0 50:1.0 51:1.0 52:1.0 53:0.0 54:0.0 55:0.0 56:0.0 57:0.0 58:0.0 59:0.0 60:1.0 61:1.0 62:1.0 63:0.0 64:0.0 65:0.0 66:0.0 67:0.0 68:0.0 69:0.0 70:1.0 71:0.0 72:1.0 73:1.0 74:1.0 75:1.0 76:1.0 77:1.0 78:1.0 79:1.0 80:0.0 81:0.0 82:1.0 83:1.0 84:0.0 85:1.0 86:1.0 87:1.0 88:1.0 89:1.0 90:0.0 91:0.0 92:0.0 93:1.0 94:1.0 95:0.0 96:1.0 97:1.0 98:1.0 99:0.0 100:0.0 
0.0 0.0 0.0 0.0 0.0 0.0 0.0 0.0 0.0 0.0 0.0 0.0 0.0 0.0 0.0 0.0 0.18586968967020367 0.0 0.04811791444939032 0.0 0.0 0.0 0.0 0.0 0.0 0.0 0.0 0.0 0.0 0.0 0.0 0.0 0.0 0.0 0.0 1:0.0 2:0.0 3:0.0 4:1.0 5:1.0 6:1.0 7:1.0 8:1.0 9:0.0 10:0.0 11:0.0 12:1.0 13:1.0 14:1.0 15:1.0 16:1.0 17:1.0 18:1.0 19:1.0 20:0.0 21:0.0 22:1.0 23:1.0 24:1.0 25:1.0 26:0.0 27:1.0 28:1.0 29:1.0 30:0.0 31:0.0 32:1.0 33:1.0 34:0.0 35:0.0 36:0.0 37:0.0 38:0.0 39:1.0 40:1.0 41:1.0 42:1.0 43:0.0 44:0.0 45:0.0 46:0.0 47:0.0 48:0.0 49:1.0 50:0.0 51:1.0 52:0.0 53:0.0 54:0.0 55:0.0 56:0.0 57:0.0 58:1.0 59:1.0 60:0.0 61:0.0 62:1.0 63:1.0 64:0.0 65:1.0 66:1.0 67:1.0 68:1.0 69:1.0 70:0.0 71:0.0 72:1.0 73:1.0 74:0.0 75:1.0 76:1.0 77:1.0 78:1.0 79:1.0 80:0.0 81:0.0 82:0.0 83:1.0 84:1.0 85:1.0 86:1.0 87:1.0 88:0.0 89:0.0 90:0.0 91:0.0 92:0.0 93:0.0 94:1.0 95:0.0 96:0.0 97:0.0 98:0.0 99:0.0 100:0.0 
0.0 0.04592269176015724 0.05974840195346118 0.0 0.0020511348466943527 0.06103630613839158 0.0015289523080489298 0.0 0.0 0.04183955905760338 0.0637600451143266 0.08410246254821167 0.0 0.0 0.0 0.0 0.0 0.0 0.0 0.07503951672003724 0.0 0.07455467022277368 0.0010470722060909494 0.0 0.0 0.0 0.0 0.02009110958159645 0.0018443686785757805 0.27248017115136297 0.017169645658671715 0.14379277860819217 0.40685903399305784 0.0 0.18228962828142228 1:0.0 2:0.0 3:0.0 4:0.0 5:0.0 6:1.0 7:1.0 8:1.0 9:0.0 10:0.0 11:0.0 12:0.0 13:0.0 14:1.0 15:0.0 16:1.0 17:0.0 18:1.0 19:1.0 20:0.0 21:0.0 22:0.0 23:1.0 24:1.0 25:0.0 26:1.0 27:1.0 28:1.0 29:1.0 30:0.0 31:0.0 32:1.0 33:1.0 34:1.0 35:1.0 36:0.0 37:0.0 38:0.0 39:1.0 40:1.0 41:0.0 42:1.0 43:1.0 44:0.0 45:0.0 46:0.0 47:0.0 48:0.0 49:1.0 50:1.0 51:0.0 52:1.0 53:0.0 54:0.0 55:0.0 56:0.0 57:0.0 58:0.0 59:1.0 60:1.0 61:1.0 62:1.0 63:0.0 64:0.0 65:0.0 66:1.0 67:1.0 68:1.0 69:1.0 70:0.0 71:1.0 72:1.0 73:0.0 74:0.0 75:0.0 76:1.0 77:1.0 78:1.0 79:1.0 80:0.0 81:0.0 82:1.0 83:1.0 84:0.0 85:1.0 86:1.0 87:1.0 88:1.0 89:0.0 90:0.0 91:0.0 92:0.0 93:0.0 94:1.0 95:1.0 96:0.0 97:0.0 98:0.0 99:0.0 100:0.0 
0.0770623354701649 0.07728800924820949 0.1602068135074899 0.3148615406723948 0.14319933799675985 0.19295384165082466 0.1897774755056246 0.3960146343659594 0.12819278589234132 0.1370566469254701 0.1615101202540176 0.16898626757262922 0.18761861752038403 0.1595103425973686 0.22134873969100935 0.1526746361879409 0.25565198442516585 0.14916352913035663 0.0 0.07042878099167657 0.1422274014354267 0.2772834747923515 0.17517839803496635 0.3538759192997215 0.16912869519649826 0.17442294368313252 0.16025675275715345 0.16032093755977622 0.1500116995889087 0.26901234720785894 0.12753783365792662 0.3475258513627482 0.3797084356953461 0.2662646789426491 0.11265967553646687 1:0.0 2:0.0 3:1.0 4:1.0 5:1.0 6:1.0 7:1.0 8:1.0 9:0.0 10:0.0 11:0.0 12:1.0 13:0.0 14:1.0 15:1.0 16:1.0 17:1.0 18:1.0 19:1.0 20:0.0 21:0.0 22:1.0 23:0.0 24:1.0 25:1.0 26:1.0 27:0.0 28:1.0 29:1.0 30:0.0 31:0.0 32:1.0 33:0.0 34:0.0 35:0.0 36:0.0 37:0.0 38:0.0 39:1.0 40:1.0 41:1.0 42:1.0 43:0.0 44:0.0 45:0.0 46:0.0 47:0.0 48:0.0 49:0.0 50:1.0 51:1.0 52:1.0 53:0.0 54:0.0 55:0.0 56:0.0 57:0.0 58:0.0 59:0.0 60:1.0 61:1.0 62:1.0 63:0.0 64:0.0 65:0.0 66:0.0 67:0.0 68:0.0 69:1.0 70:1.0 71:0.0 72:0.0 73:1.0 74:1.0 75:1.0 76:1.0 77:0.0 78:1.0 79:1.0 80:0.0 81:0.0 82:1.0 83:1.0 84:1.0 85:0.0 86:1.0 87:0.0 88:1.0 89:0.0 90:0.0 91:0.0 92:0.0 93:1.0 94:1.0 95:1.0 96:1.0 97:1.0 98:1.0 99:0.0 100:0.0 
0.02013885399411115 0.0 0.0 0.0 0.1551475092309354 0.0 0.0 0.03877439515438748 0.0 0.0 0.0 0.0 0.0 0.0 0.0 0.0 0.4200855261105576 0.0 0.0 0.0 0.0 0.0 0.0 0.0 0.0 0.0 0.0 0.0 0.0 0.0 0.0 0.0 0.0 0.0 0.0 1:0.0 2:0.0 3:1.0 4:1.0 5:1.0 6:1.0 7:1.0 8:1.0 9:0.0 10:0.0 11:0.0 12:1.0 13:1.0 14:1.0 15:0.0 16:1.0 17:1.0 18:1.0 19:1.0 20:0.0 21:0.0 22:1.0 23:1.0 24:1.0 25:0.0 26:1.0 27:1.0 28:1.0 29:1.0 30:0.0 31:1.0 32:1.0 33:0.0 34:0.0 35:0.0 36:0.0 37:0.0 38:0.0 39:1.0 40:1.0 41:1.0 42:0.0 43:0.0 44:0.0 45:0.0 46:0.0 47:0.0 48:0.0 49:0.0 50:1.0 51:1.0 52:0.0 53:0.0 54:0.0 55:0.0 56:0.0 57:0.0 58:0.0 59:0.0 60:1.0 61:1.0 62:1.0 63:0.0 64:0.0 65:0.0 66:0.0 67:0.0 68:0.0 69:0.0 70:1.0 71:0.0 72:1.0 73:1.0 74:1.0 75:1.0 76:1.0 77:1.0 78:1.0 79:1.0 80:0.0 81:0.0 82:1.0 83:1.0 84:1.0 85:1.0 86:1.0 87:1.0 88:1.0 89:1.0 90:0.0 91:0.0 92:0.0 93:0.0 94:1.0 95:1.0 96:1.0 97:1.0 98:1.0 99:0.0 100:0.0 
0.10485514694306274 0.024200580176020503 0.03257473384594858 0.0 0.0 0.0 0.0 0.0 0.0 0.0 0.01495008553567778 0.0 0.0 0.0 0.06387330819252651 0.04575255089836024 0.0 0.0 0.0 0.0 0.0 0.0 0.0 0.0 0.002400607042121098 0.0963626205138615 0.0 0.0052095012898916 0.0 0.0 0.05918243474372934 0.06172349709148531 0.0 0.021976625974526383 0.0 1:0.0 2:0.0 3:0.0 4:0.0 5:0.0 6:1.0 7:1.0 8:1.0 9:0.0 10:0.0 11:0.0 12:0.0 13:1.0 14:1.0 15:1.0 16:1.0 17:1.0 18:0.0 19:1.0 20:0.0 21:0.0 22:0.0 23:1.0 24:1.0 25:1.0 26:1.0 27:1.0 28:1.0 29:1.0 30:0.0 31:0.0 32:1.0 33:1.0 34:0.0 35:1.0 36:0.0 37:0.0 38:0.0 39:1.0 40:1.0 41:0.0 42:0.0 43:1.0 44:0.0 45:0.0 46:0.0 47:0.0 48:0.0 49:0.0 50:0.0 51:1.0 52:1.0 53:0.0 54:0.0 55:0.0 56:0.0 57:0.0 58:0.0 59:1.0 60:1.0 61:0.0 62:1.0 63:1.0 64:0.0 65:0.0 66:1.0 67:1.0 68:1.0 69:1.0 70:0.0 71:0.0 72:1.0 73:1.0 74:0.0 75:0.0 76:1.0 77:1.0 78:1.0 79:1.0 80:0.0 81:0.0 82:0.0 83:1.0 84:1.0 85:1.0 86:0.0 87:1.0 88:1.0 89:1.0 90:0.0 91:0.0 92:0.0 93:0.0 94:1.0 95:1.0 96:1.0 97:0.0 98:0.0 99:0.0 100:0.0 
0.11371609850539562 0.0 0.0 0.0 0.22253958919083527 0.0 0.0 0.0 0.0 0.0 0.0 0.0 0.0 0.0 0.0 0.0 0.4663549549092747 0.0 0.0 0.0 0.0 0.0 0.0 0.0 0.0 0.0 0.0 0.0 0.0 0.0 0.0 0.0 0.0 0.0 0.0 1:0.0 2:0.0 3:0.0 4:1.0 5:1.0 6:1.0 7:0.0 8:1.0 9:0.0 10:0.0 11:0.0 12:1.0 13:1.0 14:1.0 15:1.0 16:1.0 17:1.0 18:1.0 19:1.0 20:0.0 21:0.0 22:1.0 23:1.0 24:1.0 25:1.0 26:1.0 27:1.0 28:1.0 29:1.0 30:0.0 31:1.0 32:0.0 33:0.0 34:0.0 35:0.0 36:0.0 37:0.0 38:0.0 39:1.0 40:1.0 41:1.0 42:0.0 43:0.0 44:0.0 45:0.0 46:0.0 47:0.0 48:0.0 49:0.0 50:1.0 51:1.0 52:0.0 53:0.0 54:0.0 55:0.0 56:0.0 57:0.0 58:0.0 59:0.0 60:1.0 61:1.0 62:0.0 63:0.0 64:0.0 65:0.0 66:0.0 67:0.0 68:0.0 69:1.0 70:1.0 71:0.0 72:1.0 73:1.0 74:1.0 75:1.0 76:1.0 77:0.0 78:1.0 79:1.0 80:0.0 81:0.0 82:1.0 83:0.0 84:1.0 85:1.0 86:1.0 87:1.0 88:1.0 89:1.0 90:0.0 91:0.0 92:0.0 93:1.0 94:1.0 95:1.0 96:1.0 97:1.0 98:1.0 99:0.0 100:0.0 
0.3596881029189626 0.0 0.001670694856568637 0.08808810888828338 0.0 0.0 0.0 0.1894747085243118 0.0 0.0 0.0 0.0 0.0 0.0 0.0 0.0 0.0 0.0 0.0 0.0 0.09290777759429722 0.03593566285859864 0.0 0.0 0.04124246979218631 0.0 0.0 0.0 0.0 0.0 0.0 0.0 0.0 0.02480682593235903 0.06053848180358063 1:0.0 2:0.0 3:0.0 4:1.0 5:1.0 6:1.0 7:1.0 8:1.0 9:0.0 10:0.0 11:0.0 12:1.0 13:1.0 14:1.0 15:1.0 16:1.0 17:0.0 18:1.0 19:0.0 20:0.0 21:0.0 22:1.0 23:1.0 24:1.0 25:1.0 26:1.0 27:0.0 28:1.0 29:1.0 30:0.0 31:0.0 32:1.0 33:1.0 34:0.0 35:0.0 36:0.0 37:0.0 38:0.0 39:1.0 40:1.0 41:1.0 42:1.0 43:0.0 44:0.0 45:0.0 46:0.0 47:0.0 48:0.0 49:1.0 50:0.0 51:1.0 52:0.0 53:0.0 54:0.0 55:0.0 56:0.0 57:0.0 58:1.0 59:1.0 60:0.0 61:0.0 62:1.0 63:1.0 64:0.0 65:1.0 66:1.0 67:1.0 68:1.0 69:1.0 70:0.0 71:0.0 72:1.0 73:1.0 74:1.0 75:1.0 76:1.0 77:1.0 78:1.0 79:1.0 80:0.0 81:0.0 82:0.0 83:1.0 84:1.0 85:1.0 86:0.0 87:1.0 88:0.0 89:0.0 90:0.0 91:0.0 92:0.0 93:0.0 94:1.0 95:0.0 96:0.0 97:0.0 98:0.0 99:0.0 100:0.0 
0.1433208483055132 0.0 0.0 0.0 0.0 0.0 0.0 0.0 0.0 0.0 0.0 0.0 0.0 0.0 0.0 0.0 0.3141578278746207 0.0 0.0140005497523172 0.0 0.0 0.0 0.0 0.0 0.0 0.0 0.0 0.0 0.0 0.0 0.0 0.0 0.0 0.061002625405407296 0.0 1:0.0 2:0.0 3:1.0 4:0.0 5:1.0 6:1.0 7:0.0 8:1.0 9:0.0 10:0.0 11:0.0 12:1.0 13:1.0 14:1.0 15:1.0 16:1.0 17:0.0 18:1.0 19:1.0 20:0.0 21:0.0 22:1.0 23:1.0 24:1.0 25:1.0 26:1.0 27:0.0 28:1.0 29:1.0 30:0.0 31:0.0 32:1.0 33:0.0 34:0.0 35:0.0 36:0.0 37:0.0 38:0.0 39:0.0 40:1.0 41:1.0 42:1.0 43:0.0 44:0.0 45:0.0 46:0.0 47:0.0 48:0.0 49:0.0 50:1.0 51:1.0 52:1.0 53:0.0 54:0.0 55:0.0 56:0.0 57:0.0 58:0.0 59:0.0 60:0.0 61:1.0 62:0.0 63:0.0 64:0.0 65:0.0 66:0.0 67:0.0 68:0.0 69:0.0 70:1.0 71:0.0 72:1.0 73:1.0 74:1.0 75:1.0 76:1.0 77:1.0 78:1.0 79:1.0 80:0.0 81:0.0 82:1.0 83:1.0 84:1.0 85:1.0 86:1.0 87:1.0 88:1.0 89:1.0 90:0.0 91:0.0 92:0.0 93:1.0 94:1.0 95:1.0 96:1.0 97:0.0 98:1.0 99:0.0 100:0.0 
0.022404743363797084 0.04033754709460518 0.15373539419100482 0.2554758052325183 0.19782347770915304 0.1881496539172253 0.1451431472338522 0.048840918287594653 0.0 0.07049820150684882 0.031290941044322736 0.0 0.11410595607477059 0.3051002285885288 0.08221592913770723 0.008032467372475427 0.07190730540483263 0.06417193368492452 0.0 0.0012867477971813394 0.07716393534957795 0.07638486697643429 0.07943417031123848 0.3613566556771785 0.05716492657914696 0.09008680694488116 0.06196703493502117 0.12933616070260662 0.1646771023938621 0.06940661683093712 0.0 0.22868925120629435 0.7753569548075611 0.0 0.17635382006853856 1:0.0 2:0.0 3:0.0 4:0.0 5:0.0 6:0.0 7:0.0 8:1.0 9:0.0 10:0.0 11:0.0 12:0.0 13:1.0 14:1.0 15:1.0 16:1.0 17:1.0 18:1.0 19:1.0 20:0.0 21:0.0 22:0.0 23:1.0 24:1.0 25:1.0 26:1.0 27:1.0 28:1.0 29:1.0 30:0.0 31:0.0 32:1.0 33:1.0 34:1.0 35:0.0 36:1.0 37:1.0 38:0.0 39:1.0 40:1.0 41:0.0 42:1.0 43:0.0 44:0.0 45:0.0 46:0.0 47:0.0 48:0.0 49:0.0 50:1.0 51:1.0 52:1.0 53:0.0 54:0.0 55:0.0 56:0.0 57:0.0 58:0.0 59:0.0 60:1.0 61:1.0 62:0.0 63:0.0 64:0.0 65:0.0 66:0.0 67:0.0 68:0.0 69:1.0 70:1.0 71:1.0 72:0.0 73:0.0 74:0.0 75:0.0 76:0.0 77:0.0 78:0.0 79:1.0 80:0.0 81:0.0 82:1.0 83:1.0 84:0.0 85:1.0 86:1.0 87:1.0 88:1.0 89:1.0 90:1.0 91:0.0 92:0.0 93:1.0 94:1.0 95:0.0 96:1.0 97:1.0 98:1.0 99:0.0 100:0.0 
0.5344360805367743 0.033667140167321606 0.10320668036651214 0.0 0.029530411418350888 0.16844763443198243 0.23030746687261497 0.0 0.04285086790550659 0.13645362927354796 0.16231803142952142 0.07754320291558225 0.07463592510054019 0.10528670558332284 0.0637841841823739 0.11130241676656985 0.0 0.19121648099423438 0.0 0.154291487756547 0.11012943607686357 0.15578151712282035 0.11119051029743784 0.03578996677552974 0.10702122621412065 0.011352827658179545 0.08253323094362518 0.09884319655878884 0.062066541720479484 0.2169529137837551 0.07405617956296137 0.2821568966674335 0.0 0.21602162069586325 0.15778738221843053 1:0.0 2:0.0 3:0.0 4:0.0 5:0.0 6:0.0 7:1.0 8:0.0 9:0.0 10:0.0 11:0.0 12:0.0 13:1.0 14:1.0 15:1.0 16:1.0 17:0.0 18:1.0 19:0.0 20:0.0 21:0.0 22:0.0 23:0.0 24:1.0 25:1.0 26:1.0 27:0.0 28:1.0 29:0.0 30:0.0 31:0.0 32:1.0 33:1.0 34:1.0 35:1.0 36:1.0 37:0.0 38:1.0 39:1.0 40:0.0 41:1.0 42:1.0 43:0.0 44:0.0 45:0.0 46:0.0 47:0.0 48:0.0 49:1.0 50:1.0 51:1.0 52:0.0 53:0.0 54:0.0 55:0.0 56:0.0 57:0.0 58:0.0 59:1.0 60:0.0 61:1.0 62:1.0 63:0.0 64:0.0 65:0.0 66:0.0 67:1.0 68:1.0 69:0.0 70:0.0 71:1.0 72:1.0 73:0.0 74:0.0 75:0.0 76:0.0 77:0.0 78:1.0 79:0.0 80:0.0 81:0.0 82:1.0 83:1.0 84:1.0 85:1.0 86:1.0 87:1.0 88:1.0 89:0.0 90:0.0 91:0.0 92:0.0 93:1.0 94:1.0 95:1.0 96:0.0 97:1.0 98:0.0 99:0.0 100:0.0 
0.6806486424073775 0.12274562149598968 0.41495811847707453 0.0 0.42823728745448825 0.20642875636539343 0.17040676322044285 0.001372303477849641 0.2827422979377273 0.11207891257263433 0.11908784069189184 0.022995368289503 0.17813623037163484 0.1541255323314529 0.20917326101531092 0.10830054400822525 0.07876805458958441 0.15647823840618408 0.07635054010861295 0.20657656421535037 0.0735188451423335 0.03408728810156358 0.12032793965694609 0.17141645776132056 0.11878048787607105 0.1981176553262122 0.12112614694828175 0.1557984994691724 0.12815336048430978 0.12869819239505612 0.12684512182156119 0.18436575686489412 0.10378817967851285 0.16667331603034125 0.7171393573315076 1:0.0 2:0.0 3:1.0 4:1.0 5:1.0 6:1.0 7:1.0 8:1.0 9:1.0 10:0.0 11:1.0 12:1.0 13:1.0 14:1.0 15:1.0 16:1.0 17:1.0 18:1.0 19:1.0 20:1.0 21:1.0 22:1.0 23:1.0 24:1.0 25:1.0 26:1.0 27:1.0 28:1.0 29:1.0 30:1.0 31:1.0 32:0.0 33:0.0 34:0.0 35:0.0 36:0.0 37:0.0 38:0.0 39:0.0 40:1.0 41:1.0 42:0.0 43:0.0 44:0.0 45:0.0 46:0.0 47:0.0 48:0.0 49:0.0 50:1.0 51:1.0 52:0.0 53:0.0 54:0.0 55:0.0 56:0.0 57:0.0 58:0.0 59:0.0 60:1.0 61:1.0 62:0.0 63:0.0 64:0.0 65:0.0 66:0.0 67:0.0 68:0.0 69:0.0 70:0.0 71:1.0 72:1.0 73:1.0 74:1.0 75:1.0 76:1.0 77:1.0 78:1.0 79:1.0 80:1.0 81:0.0 82:1.0 83:1.0 84:1.0 85:1.0 86:1.0 87:1.0 88:1.0 89:1.0 90:1.0 91:0.0 92:0.0 93:1.0 94:1.0 95:1.0 96:1.0 97:1.0 98:1.0 99:1.0 100:0.0 
0.0 0.0 0.0 0.0 0.0 0.0 0.0 0.0 0.0 0.0 0.0 0.0 0.0 0.0 0.0 0.0 0.0 0.0 0.0 0.0 0.0 0.0 0.0 0.0 0.0 0.0 0.0 0.0 0.0 0.0 0.0 0.0 0.026932276224683156 0.0 0.0 1:0.0 2:0.0 3:1.0 4:1.0 5:1.0 6:1.0 7:1.0 8:1.0 9:0.0 10:0.0 11:0.0 12:0.0 13:1.0 14:1.0 15:1.0 16:1.0 17:1.0 18:1.0 19:1.0 20:0.0 21:0.0 22:0.0 23:1.0 24:1.0 25:1.0 26:1.0 27:1.0 28:1.0 29:1.0 30:0.0 31:0.0 32:1.0 33:1.0 34:0.0 35:0.0 36:0.0 37:0.0 38:0.0 39:1.0 40:1.0 41:1.0 42:1.0 43:0.0 44:0.0 45:0.0 46:0.0 47:0.0 48:0.0 49:0.0 50:1.0 51:1.0 52:1.0 53:0.0 54:0.0 55:0.0 56:0.0 57:0.0 58:0.0 59:0.0 60:1.0 61:1.0 62:1.0 63:0.0 64:0.0 65:0.0 66:0.0 67:0.0 68:0.0 69:1.0 70:1.0 71:0.0 72:0.0 73:1.0 74:1.0 75:1.0 76:1.0 77:1.0 78:1.0 79:1.0 80:0.0 81:0.0 82:0.0 83:1.0 84:1.0 85:1.0 86:1.0 87:0.0 88:1.0 89:1.0 90:0.0 91:0.0 92:0.0 93:1.0 94:1.0 95:1.0 96:1.0 97:1.0 98:1.0 99:1.0 100:0.0 
0.21659748717653246 0.0 0.09498403044900335 0.10728511771957107 0.2854976038969261 0.17164463245397804 0.1247822977108642 0.02423545985050455 0.09414436644551055 0.02071943875272607 0.0 0.0 0.14916567664772987 0.023688416832145818 0.09147036703657213 0.021790976322951724 0.025256063653380404 0.2968415408720774 0.041009485191377454 0.15583910563241551 0.04085820425166111 0.0 0.06954593024873891 0.5095846396205687 0.20225119573923994 0.14896010814831218 0.08180583118624324 0.20277819493414714 0.06989543798634487 0.0 0.06829747761045948 0.042687171694304714 0.0 0.025779684243891966 0.0 1:0.0 2:0.0 3:0.0 4:0.0 5:0.0 6:0.0 7:1.0 8:1.0 9:0.0 10:0.0 11:0.0 12:1.0 13:1.0 14:1.0 15:1.0 16:1.0 17:1.0 18:1.0 19:0.0 20:0.0 21:0.0 22:1.0 23:1.0 24:1.0 25:1.0 26:1.0 27:1.0 28:1.0 29:1.0 30:0.0 31:0.0 32:1.0 33:1.0 34:1.0 35:1.0 36:1.0 37:1.0 38:0.0 39:1.0 40:1.0 41:1.0 42:1.0 43:0.0 44:0.0 45:0.0 46:0.0 47:0.0 48:0.0 49:0.0 50:1.0 51:0.0 52:0.0 53:0.0 54:0.0 55:0.0 56:0.0 57:0.0 58:0.0 59:0.0 60:1.0 61:0.0 62:1.0 63:0.0 64:0.0 65:0.0 66:0.0 67:0.0 68:1.0 69:0.0 70:0.0 71:0.0 72:1.0 73:0.0 74:0.0 75:0.0 76:0.0 77:0.0 78:1.0 79:0.0 80:1.0 81:0.0 82:1.0 83:1.0 84:1.0 85:1.0 86:1.0 87:1.0 88:1.0 89:1.0 90:0.0 91:0.0 92:0.0 93:1.0 94:1.0 95:1.0 96:1.0 97:0.0 98:0.0 99:0.0 100:0.0 
0.18948964986024416 0.0 0.010767003953912852 0.1577409493183605 7.15964794019235E-4 0.0 0.04409569110892032 0.02618780830523408 0.015279091843084954 0.026843788834264748 0.0419008479011043 0.05581016664172646 0.0072169161514419565 0.006308426736555406 0.0 0.03399464778522937 0.0220473633936675 0.07750670728863499 0.23981272040044155 0.0 0.0 0.16202512102955713 0.006533492916704202 0.04531514546270067 0.0 0.0046175037708753065 0.0 0.004011396238818138 0.059732894801086234 0.0 0.11311200776206115 0.07525984245231755 0.0 0.14371871071957745 0.0 1:0.0 2:0.0 3:1.0 4:1.0 5:1.0 6:1.0 7:1.0 8:1.0 9:0.0 10:0.0 11:0.0 12:0.0 13:1.0 14:1.0 15:1.0 16:1.0 17:1.0 18:1.0 19:1.0 20:0.0 21:0.0 22:0.0 23:1.0 24:0.0 25:1.0 26:1.0 27:1.0 28:1.0 29:0.0 30:0.0 31:1.0 32:1.0 33:0.0 34:0.0 35:0.0 36:0.0 37:0.0 38:0.0 39:1.0 40:1.0 41:1.0 42:0.0 43:0.0 44:0.0 45:0.0 46:0.0 47:0.0 48:0.0 49:0.0 50:1.0 51:1.0 52:0.0 53:0.0 54:0.0 55:0.0 56:0.0 57:0.0 58:0.0 59:0.0 60:1.0 61:1.0 62:1.0 63:0.0 64:0.0 65:0.0 66:0.0 67:0.0 68:0.0 69:1.0 70:1.0 71:0.0 72:1.0 73:1.0 74:1.0 75:1.0 76:1.0 77:0.0 78:1.0 79:0.0 80:0.0 81:0.0 82:1.0 83:1.0 84:1.0 85:1.0 86:1.0 87:0.0 88:1.0 89:0.0 90:0.0 91:0.0 92:0.0 93:1.0 94:1.0 95:1.0 96:1.0 97:1.0 98:1.0 99:0.0 100:0.0 
0.0 0.07444416427632138 0.0 0.0011309849267731908 0.0 0.055088666185677676 0.06674031720015045 0.05902144854659577 0.02439158490771638 0.0915575649185082 0.03684498524511714 0.028795685139208264 0.14622697420164157 0.09931521366726119 0.07902471594642921 0.1003241378611136 0.0 0.0 0.0 0.0 0.034830161598683566 0.0958448122637384 0.1221970823970101 0.23692603769435633 0.11411161516849995 0.10462485241156086 0.08036362712039608 0.13155193377508004 0.1581987027497927 0.03928223300217076 0.01341501837533847 0.17765822213912524 0.2852678744074877 0.11158357799196798 0.0 1:0.0 2:0.0 3:0.0 4:0.0 5:1.0 6:0.0 7:1.0 8:1.0 9:0.0 10:0.0 11:0.0 12:1.0 13:1.0 14:1.0 15:1.0 16:1.0 17:1.0 18:1.0 19:1.0 20:0.0 21:0.0 22:1.0 23:1.0 24:1.0 25:0.0 26:1.0 27:1.0 28:1.0 29:1.0 30:0.0 31:0.0 32:1.0 33:1.0 34:1.0 35:0.0 36:0.0 37:0.0 38:0.0 39:1.0 40:1.0 41:0.0 42:1.0 43:0.0 44:0.0 45:0.0 46:0.0 47:0.0 48:0.0 49:1.0 50:1.0 51:0.0 52:1.0 53:0.0 54:0.0 55:0.0 56:0.0 57:0.0 58:1.0 59:1.0 60:0.0 61:1.0 62:1.0 63:1.0 64:0.0 65:0.0 66:1.0 67:0.0 68:1.0 69:1.0 70:0.0 71:1.0 72:1.0 73:1.0 74:0.0 75:0.0 76:1.0 77:1.0 78:1.0 79:1.0 80:0.0 81:0.0 82:0.0 83:1.0 84:0.0 85:0.0 86:0.0 87:1.0 88:1.0 89:0.0 90:0.0 91:0.0 92:0.0 93:0.0 94:1.0 95:1.0 96:0.0 97:0.0 98:0.0 99:0.0 100:0.0 
0.0 0.0 0.0 0.0 0.0 0.0 0.0 0.0 0.0 0.0 0.0 0.0 0.0 0.0 0.0 0.0 0.0 0.0 0.0 0.0 0.0 0.0 0.0 0.0 0.0 0.0 0.0 0.0 0.0 0.0 0.0 0.0 0.1836226598845101 0.0 0.0 1:0.0 2:0.0 3:0.0 4:1.0 5:1.0 6:1.0 7:1.0 8:1.0 9:0.0 10:0.0 11:0.0 12:1.0 13:1.0 14:1.0 15:1.0 16:1.0 17:1.0 18:1.0 19:1.0 20:0.0 21:0.0 22:1.0 23:1.0 24:1.0 25:1.0 26:1.0 27:1.0 28:0.0 29:1.0 30:0.0 31:0.0 32:1.0 33:1.0 34:1.0 35:0.0 36:0.0 37:0.0 38:0.0 39:1.0 40:1.0 41:1.0 42:1.0 43:0.0 44:0.0 45:0.0 46:0.0 47:0.0 48:0.0 49:1.0 50:1.0 51:1.0 52:0.0 53:0.0 54:0.0 55:0.0 56:0.0 57:0.0 58:1.0 59:0.0 60:0.0 61:1.0 62:1.0 63:1.0 64:0.0 65:1.0 66:1.0 67:1.0 68:1.0 69:1.0 70:0.0 71:1.0 72:1.0 73:1.0 74:0.0 75:1.0 76:1.0 77:1.0 78:1.0 79:1.0 80:0.0 81:0.0 82:0.0 83:1.0 84:1.0 85:1.0 86:1.0 87:1.0 88:1.0 89:0.0 90:0.0 91:0.0 92:0.0 93:0.0 94:0.0 95:0.0 96:0.0 97:0.0 98:0.0 99:0.0 100:0.0 
0.02074197904372055 0.0 0.0 0.0 0.0 0.0 0.0 0.0 0.0 0.0 0.0 0.0 0.0 0.0 0.0 0.0 0.0 0.0 0.0 0.0 0.0 0.0 0.0 0.0 0.0 0.0 0.0 0.0 0.0 0.0 0.0 0.0 0.22771505235418651 0.0 0.07239136963031964 1:0.0 2:0.0 3:0.0 4:0.0 5:0.0 6:0.0 7:0.0 8:1.0 9:0.0 10:0.0 11:0.0 12:0.0 13:0.0 14:1.0 15:1.0 16:1.0 17:1.0 18:1.0 19:1.0 20:0.0 21:0.0 22:0.0 23:0.0 24:1.0 25:1.0 26:1.0 27:1.0 28:1.0 29:1.0 30:0.0 31:1.0 32:1.0 33:1.0 34:1.0 35:1.0 36:1.0 37:1.0 38:0.0 39:1.0 40:1.0 41:1.0 42:1.0 43:1.0 44:0.0 45:0.0 46:0.0 47:0.0 48:0.0 49:0.0 50:1.0 51:1.0 52:0.0 53:0.0 54:0.0 55:0.0 56:0.0 57:0.0 58:1.0 59:1.0 60:1.0 61:1.0 62:0.0 63:0.0 64:1.0 65:1.0 66:1.0 67:1.0 68:1.0 69:1.0 70:0.0 71:1.0 72:0.0 73:0.0 74:1.0 75:1.0 76:1.0 77:1.0 78:1.0 79:1.0 80:0.0 81:0.0 82:1.0 83:1.0 84:1.0 85:1.0 86:1.0 87:1.0 88:1.0 89:0.0 90:0.0 91:0.0 92:0.0 93:1.0 94:1.0 95:0.0 96:0.0 97:0.0 98:0.0 99:0.0 100:0.0 
0.10121705133542588 0.06255940242297361 0.003879992415969725 0.0 0.13073895847710715 0.006871292807282165 0.028331486923212666 0.0 0.01916445186388554 0.042694666527195994 0.09333853644077886 0.13652324694329457 0.019112460961295038 0.021367586210244708 0.06388586019398007 0.042030749112519014 0.09273348624638014 0.0 0.0 0.0065851327532813145 0.10797438002490574 0.15005487960513653 0.044048171529433945 0.11174292729782903 0.059859888493198246 0.06494019481700891 0.04190363243384262 0.08017662447531107 0.03803767913338036 0.08540120251855478 0.08576096123106026 0.10735983257612121 0.0 0.04898062380303799 0.25532900698852457 1:0.0 2:0.0 3:1.0 4:1.0 5:1.0 6:1.0 7:1.0 8:1.0 9:0.0 10:0.0 11:0.0 12:1.0 13:1.0 14:1.0 15:0.0 16:0.0 17:1.0 18:1.0 19:1.0 20:0.0 21:0.0 22:0.0 23:1.0 24:1.0 25:1.0 26:1.0 27:1.0 28:0.0 29:1.0 30:0.0 31:0.0 32:1.0 33:0.0 34:0.0 35:0.0 36:0.0 37:0.0 38:0.0 39:1.0 40:1.0 41:1.0 42:0.0 43:0.0 44:0.0 45:0.0 46:0.0 47:0.0 48:0.0 49:0.0 50:1.0 51:1.0 52:0.0 53:0.0 54:0.0 55:0.0 56:0.0 57:0.0 58:0.0 59:0.0 60:1.0 61:1.0 62:1.0 63:0.0 64:0.0 65:0.0 66:0.0 67:0.0 68:0.0 69:1.0 70:1.0 71:0.0 72:1.0 73:1.0 74:1.0 75:1.0 76:0.0 77:1.0 78:1.0 79:1.0 80:0.0 81:0.0 82:1.0 83:1.0 84:1.0 85:1.0 86:0.0 87:1.0 88:1.0 89:0.0 90:0.0 91:0.0 92:0.0 93:1.0 94:1.0 95:1.0 96:1.0 97:1.0 98:1.0 99:0.0 100:0.0 
0.0 0.0 0.0 0.0 0.0 0.0 0.0 0.0 0.0 0.0 0.0 0.0 0.0 0.0 0.0 0.0 0.0 0.0 0.0 0.0 0.0 0.0 0.0 0.0 0.0 0.0 0.0 0.0 0.0 0.0 0.0 0.0 0.01635992452180253 0.0 0.0 1:0.0 2:0.0 3:0.0 4:0.0 5:0.0 6:1.0 7:1.0 8:1.0 9:0.0 10:0.0 11:0.0 12:0.0 13:1.0 14:1.0 15:1.0 16:1.0 17:1.0 18:1.0 19:0.0 20:0.0 21:0.0 22:0.0 23:1.0 24:1.0 25:1.0 26:1.0 27:1.0 28:1.0 29:1.0 30:0.0 31:0.0 32:0.0 33:1.0 34:1.0 35:1.0 36:0.0 37:0.0 38:0.0 39:1.0 40:0.0 41:0.0 42:1.0 43:0.0 44:0.0 45:0.0 46:0.0 47:0.0 48:0.0 49:1.0 50:1.0 51:0.0 52:1.0 53:0.0 54:0.0 55:0.0 56:0.0 57:0.0 58:0.0 59:1.0 60:0.0 61:1.0 62:1.0 63:0.0 64:0.0 65:0.0 66:1.0 67:1.0 68:1.0 69:1.0 70:0.0 71:1.0 72:1.0 73:0.0 74:0.0 75:0.0 76:1.0 77:1.0 78:1.0 79:1.0 80:0.0 81:0.0 82:1.0 83:1.0 84:1.0 85:1.0 86:1.0 87:1.0 88:1.0 89:0.0 90:0.0 91:0.0 92:0.0 93:0.0 94:0.0 95:1.0 96:0.0 97:0.0 98:0.0 99:0.0 100:0.0 
0.0 0.09103576665177439 0.20786471018336652 0.28767928363794854 0.0 0.16135642248893034 0.08888737974011868 0.6416103775113953 0.1520905480169687 0.06210112953598636 0.09721062281301836 0.11968740037183144 0.19087304771150884 0.08637840046062784 0.15725741489744832 0.16182330086269456 0.332906037048794 0.09823243624076618 0.21516278738030645 0.163021302938379 0.2540144923182499 0.02144498151195695 0.057405785168670814 0.2520699403274288 0.05753664403551946 0.12360213572965482 0.11309701085636076 0.08748162741356152 0.11436015726038175 0.026353736763210924 0.1597514213291348 0.15850761966631402 0.2675017358195074 0.10588764946049387 0.43831948521532316 1:0.0 2:0.0 3:0.0 4:0.0 5:1.0 6:1.0 7:1.0 8:1.0 9:0.0 10:0.0 11:0.0 12:0.0 13:1.0 14:1.0 15:1.0 16:1.0 17:1.0 18:1.0 19:1.0 20:0.0 21:0.0 22:0.0 23:1.0 24:1.0 25:0.0 26:1.0 27:1.0 28:1.0 29:1.0 30:0.0 31:1.0 32:1.0 33:1.0 34:0.0 35:1.0 36:0.0 37:0.0 38:0.0 39:1.0 40:1.0 41:1.0 42:0.0 43:0.0 44:0.0 45:0.0 46:0.0 47:0.0 48:0.0 49:1.0 50:0.0 51:0.0 52:0.0 53:0.0 54:0.0 55:0.0 56:0.0 57:0.0 58:0.0 59:0.0 60:1.0 61:0.0 62:0.0 63:0.0 64:0.0 65:0.0 66:1.0 67:1.0 68:1.0 69:1.0 70:0.0 71:0.0 72:0.0 73:0.0 74:0.0 75:0.0 76:1.0 77:1.0 78:0.0 79:1.0 80:0.0 81:1.0 82:1.0 83:1.0 84:1.0 85:1.0 86:1.0 87:1.0 88:1.0 89:1.0 90:0.0 91:0.0 92:0.0 93:1.0 94:1.0 95:0.0 96:0.0 97:0.0 98:0.0 99:0.0 100:0.0 
0.11180553272644567 0.0 0.07704543626208547 0.0 0.0 0.0 0.0 0.08191918989592392 0.0 0.0 0.0 0.0 0.0 0.0 0.0 0.0 0.2306619037722285 0.0 0.0 0.0 0.0 0.0 0.0 0.0 0.0 0.0 0.0 0.0 0.0 0.0 0.0 0.0 0.11392673833346134 0.0 0.358582303156371 1:0.0 2:0.0 3:0.0 4:0.0 5:0.0 6:0.0 7:0.0 8:1.0 9:0.0 10:0.0 11:0.0 12:0.0 13:1.0 14:1.0 15:1.0 16:1.0 17:1.0 18:1.0 19:1.0 20:0.0 21:1.0 22:1.0 23:1.0 24:1.0 25:1.0 26:1.0 27:1.0 28:0.0 29:1.0 30:1.0 31:1.0 32:1.0 33:1.0 34:0.0 35:0.0 36:0.0 37:0.0 38:0.0 39:0.0 40:1.0 41:1.0 42:0.0 43:0.0 44:0.0 45:0.0 46:0.0 47:0.0 48:0.0 49:0.0 50:1.0 51:1.0 52:0.0 53:0.0 54:0.0 55:0.0 56:0.0 57:0.0 58:0.0 59:0.0 60:1.0 61:1.0 62:0.0 63:0.0 64:0.0 65:0.0 66:0.0 67:0.0 68:1.0 69:1.0 70:1.0 71:1.0 72:1.0 73:0.0 74:1.0 75:1.0 76:1.0 77:1.0 78:1.0 79:1.0 80:1.0 81:0.0 82:1.0 83:1.0 84:1.0 85:1.0 86:1.0 87:1.0 88:1.0 89:0.0 90:0.0 91:0.0 92:0.0 93:1.0 94:0.0 95:0.0 96:0.0 97:0.0 98:0.0 99:0.0 100:0.0 
0.32028310592968584 0.0 0.0 0.0 0.0 0.0 0.0 0.0 0.0 0.0024156367532199756 0.0 0.0 0.0 0.0 0.0 0.0 0.0 0.0 0.03838915810153355 0.0 0.0 0.07148643942283317 0.008268849382215648 0.0 0.009077450679212236 0.0 0.0 0.0 0.012251638892286646 0.10065331349222122 0.0 0.08071754510499701 0.0 0.0665189144305153 0.0 1:0.0 2:0.0 3:0.0 4:0.0 5:1.0 6:1.0 7:0.0 8:1.0 9:0.0 10:0.0 11:0.0 12:1.0 13:1.0 14:1.0 15:1.0 16:1.0 17:1.0 18:1.0 19:0.0 20:0.0 21:0.0 22:1.0 23:1.0 24:0.0 25:1.0 26:1.0 27:1.0 28:1.0 29:0.0 30:0.0 31:0.0 32:1.0 33:1.0 34:1.0 35:0.0 36:0.0 37:0.0 38:0.0 39:1.0 40:1.0 41:0.0 42:1.0 43:0.0 44:0.0 45:0.0 46:0.0 47:0.0 48:0.0 49:1.0 50:1.0 51:1.0 52:1.0 53:0.0 54:0.0 55:0.0 56:0.0 57:0.0 58:1.0 59:1.0 60:0.0 61:1.0 62:1.0 63:1.0 64:0.0 65:0.0 66:1.0 67:1.0 68:1.0 69:1.0 70:0.0 71:1.0 72:1.0 73:1.0 74:0.0 75:0.0 76:1.0 77:0.0 78:1.0 79:1.0 80:0.0 81:0.0 82:0.0 83:1.0 84:1.0 85:0.0 86:1.0 87:1.0 88:1.0 89:0.0 90:0.0 91:0.0 92:0.0 93:0.0 94:1.0 95:1.0 96:0.0 97:0.0 98:0.0 99:0.0 100:0.0 
0.0 0.0 0.0 0.0 0.0 0.0 0.0 0.12384962569214181 0.0 0.0 0.0 0.0 0.0 0.0 0.0 0.0 0.0 0.0 0.0 0.0 0.08045009983266078 0.0 0.0 0.0 0.0 0.0 0.0 0.0 0.0 0.0 0.0 0.0 0.0 0.0 0.09699786069531988 1:0.0 2:0.0 3:1.0 4:1.0 5:1.0 6:1.0 7:1.0 8:1.0 9:0.0 10:0.0 11:0.0 12:1.0 13:1.0 14:1.0 15:1.0 16:0.0 17:1.0 18:1.0 19:1.0 20:0.0 21:0.0 22:0.0 23:1.0 24:1.0 25:1.0 26:1.0 27:1.0 28:0.0 29:1.0 30:0.0 31:1.0 32:1.0 33:0.0 34:0.0 35:0.0 36:0.0 37:0.0 38:0.0 39:1.0 40:1.0 41:1.0 42:0.0 43:0.0 44:0.0 45:0.0 46:0.0 47:0.0 48:0.0 49:0.0 50:1.0 51:1.0 52:0.0 53:0.0 54:0.0 55:0.0 56:0.0 57:0.0 58:0.0 59:0.0 60:1.0 61:1.0 62:0.0 63:0.0 64:0.0 65:0.0 66:0.0 67:0.0 68:0.0 69:1.0 70:1.0 71:0.0 72:1.0 73:1.0 74:1.0 75:1.0 76:1.0 77:1.0 78:1.0 79:1.0 80:0.0 81:0.0 82:1.0 83:1.0 84:1.0 85:1.0 86:0.0 87:1.0 88:1.0 89:0.0 90:0.0 91:0.0 92:0.0 93:1.0 94:1.0 95:0.0 96:1.0 97:1.0 98:1.0 99:0.0 100:0.0 
0.06447117869029127 0.1510670510471658 0.29618486522350884 0.0 0.6761659098790397 0.18139580239036798 0.12600763882783753 0.007511970525893438 0.4019943577053025 0.05394557985598731 0.024004717063908533 0.10160056341151272 0.193674983244522 0.045877464469792295 0.2575271719915994 0.28737412844946314 0.03412544396421794 0.25664940703737893 0.026799307421274295 0.2713490028614995 0.05218059376033449 0.16792457436130243 0.07555804973193496 0.4241606186183019 0.0884234194619877 0.10774073670428322 0.09497067675424684 0.060691310462520555 0.12153061696624695 0.20022531034447502 0.07176292181954738 0.1241325852125761 0.19318106748861402 0.18130177478138917 0.038124463586416864 1:0.0 2:0.0 3:0.0 4:0.0 5:0.0 6:0.0 7:0.0 8:1.0 9:0.0 10:0.0 11:0.0 12:0.0 13:0.0 14:0.0 15:1.0 16:1.0 17:1.0 18:1.0 19:1.0 20:0.0 21:0.0 22:1.0 23:1.0 24:0.0 25:1.0 26:1.0 27:1.0 28:1.0 29:1.0 30:1.0 31:1.0 32:1.0 33:1.0 34:1.0 35:0.0 36:0.0 37:0.0 38:0.0 39:0.0 40:1.0 41:0.0 42:1.0 43:0.0 44:0.0 45:0.0 46:0.0 47:0.0 48:0.0 49:0.0 50:1.0 51:0.0 52:1.0 53:0.0 54:0.0 55:0.0 56:0.0 57:0.0 58:0.0 59:0.0 60:0.0 61:1.0 62:0.0 63:0.0 64:0.0 65:0.0 66:0.0 67:0.0 68:0.0 69:1.0 70:1.0 71:0.0 72:1.0 73:0.0 74:0.0 75:0.0 76:1.0 77:1.0 78:1.0 79:1.0 80:1.0 81:0.0 82:0.0 83:1.0 84:1.0 85:1.0 86:1.0 87:1.0 88:1.0 89:0.0 90:0.0 91:0.0 92:0.0 93:1.0 94:1.0 95:1.0 96:0.0 97:0.0 98:0.0 99:0.0 100:0.0 
0.5674500344914849 0.1450004970401834 0.3102011503758991 0.0 0.4079143410395406 0.20785686817825316 0.21519636475336687 0.0 0.25946152358188573 0.12639610226533787 0.18334464344694035 0.15999906994393975 0.17239326990216086 0.130003563740275 0.2736132793610365 0.17380789533957497 0.0 0.1552747231479708 0.0 0.20097283061956436 0.12453522238006505 0.18968640077355325 0.12781333575178527 0.1594589039347191 0.12933655652324888 0.15235963432859037 0.16879785278272477 0.1629408121185766 0.17467350740607546 0.24622394215974158 0.24718648715292205 0.37347658874981954 0.46975071628855886 0.15240260532578312 0.5122361771742582 1:0.0 2:0.0 3:0.0 4:0.0 5:0.0 6:0.0 7:1.0 8:1.0 9:1.0 10:0.0 11:0.0 12:0.0 13:1.0 14:1.0 15:1.0 16:1.0 17:0.0 18:1.0 19:1.0 20:1.0 21:0.0 22:1.0 23:0.0 24:1.0 25:1.0 26:1.0 27:1.0 28:1.0 29:1.0 30:1.0 31:0.0 32:1.0 33:1.0 34:1.0 35:1.0 36:0.0 37:1.0 38:0.0 39:0.0 40:1.0 41:1.0 42:1.0 43:0.0 44:0.0 45:0.0 46:0.0 47:0.0 48:0.0 49:0.0 50:1.0 51:1.0 52:1.0 53:0.0 54:0.0 55:0.0 56:0.0 57:0.0 58:0.0 59:0.0 60:1.0 61:0.0 62:0.0 63:0.0 64:0.0 65:0.0 66:0.0 67:0.0 68:1.0 69:1.0 70:1.0 71:0.0 72:1.0 73:1.0 74:1.0 75:1.0 76:1.0 77:1.0 78:1.0 79:1.0 80:0.0 81:0.0 82:1.0 83:1.0 84:1.0 85:1.0 86:1.0 87:1.0 88:1.0 89:1.0 90:1.0 91:0.0 92:0.0 93:0.0 94:1.0 95:1.0 96:1.0 97:1.0 98:0.0 99:0.0 100:0.0 
0.391846347171185 0.3444675614225603 0.8567862866658298 0.0 0.16300191264482167 0.47437772566327263 0.4792694455895001 0.0 0.48648946694145834 0.24413707232443846 0.35194654057482494 0.15425250698914664 0.36959946209113204 0.365065369022739 0.4144091352549727 0.4138004028658334 0.0 0.42118135258428263 0.027914154569197467 0.6674664557156298 0.16695565799081874 0.5372150190071822 0.3178973652863495 0.28658991053270455 0.2656609331473542 0.29660973326803225 0.33455252604103736 0.22917461632787828 0.28791636673117516 0.44804657905723944 0.21473689807861687 0.49716259519068323 0.3095686007627385 0.4515828935759734 0.055598554024771984 1:0.0 2:0.0 3:0.0 4:0.0 5:0.0 6:0.0 7:0.0 8:1.0 9:0.0 10:0.0 11:0.0 12:0.0 13:0.0 14:0.0 15:1.0 16:1.0 17:0.0 18:1.0 19:0.0 20:0.0 21:0.0 22:0.0 23:0.0 24:0.0 25:1.0 26:1.0 27:1.0 28:1.0 29:0.0 30:0.0 31:0.0 32:1.0 33:1.0 34:1.0 35:1.0 36:1.0 37:1.0 38:1.0 39:1.0 40:0.0 41:1.0 42:1.0 43:1.0 44:1.0 45:0.0 46:0.0 47:0.0 48:0.0 49:0.0 50:1.0 51:1.0 52:1.0 53:0.0 54:0.0 55:0.0 56:0.0 57:0.0 58:0.0 59:1.0 60:0.0 61:1.0 62:0.0 63:0.0 64:0.0 65:0.0 66:1.0 67:1.0 68:0.0 69:1.0 70:1.0 71:1.0 72:0.0 73:0.0 74:0.0 75:0.0 76:1.0 77:1.0 78:0.0 79:1.0 80:1.0 81:0.0 82:1.0 83:1.0 84:1.0 85:1.0 86:0.0 87:1.0 88:1.0 89:0.0 90:0.0 91:0.0 92:0.0 93:1.0 94:1.0 95:1.0 96:0.0 97:0.0 98:0.0 99:0.0 100:0.0 
0.4117008433013449 0.22954927863248634 0.31884227195183423 0.5175975905578697 0.13949559226174252 0.37603208233188756 0.3516944607638404 0.5061596053805737 0.2212852579336195 0.23417851897792116 0.27879831045542924 0.3718002508523108 0.29857292032022864 0.27624423630205375 0.35631965146152933 0.23847654359587475 0.024566169233030778 0.235010925214102 0.357705148414318 0.20289851942262385 0.45094126622033165 0.3598822828537295 0.2630428007133406 0.45351121133134853 0.24971674390085977 0.3498126374653242 0.22343412334484705 0.2734590056772067 0.26888860705052103 0.30468627368838735 0.3261702071895394 0.4528612528490969 0.32353568129564825 0.3705815541890289 0.7336408890804011 1:0.0 2:1.0 3:1.0 4:1.0 5:1.0 6:1.0 7:1.0 8:1.0 9:1.0 10:0.0 11:0.0 12:1.0 13:1.0 14:0.0 15:1.0 16:1.0 17:1.0 18:1.0 19:1.0 20:0.0 21:0.0 22:1.0 23:1.0 24:0.0 25:1.0 26:1.0 27:1.0 28:1.0 29:1.0 30:0.0 31:1.0 32:0.0 33:0.0 34:0.0 35:0.0 36:0.0 37:0.0 38:0.0 39:0.0 40:1.0 41:1.0 42:0.0 43:0.0 44:0.0 45:0.0 46:0.0 47:0.0 48:0.0 49:0.0 50:1.0 51:1.0 52:0.0 53:0.0 54:0.0 55:0.0 56:0.0 57:0.0 58:0.0 59:0.0 60:0.0 61:1.0 62:0.0 63:0.0 64:0.0 65:0.0 66:0.0 67:0.0 68:0.0 69:0.0 70:1.0 71:0.0 72:1.0 73:0.0 74:1.0 75:1.0 76:1.0 77:1.0 78:0.0 79:1.0 80:0.0 81:0.0 82:1.0 83:0.0 84:1.0 85:1.0 86:1.0 87:1.0 88:0.0 89:1.0 90:0.0 91:0.0 92:1.0 93:1.0 94:1.0 95:0.0 96:1.0 97:0.0 98:1.0 99:1.0 100:0.0 
0.0 0.0 0.0 0.0 0.0 0.0 0.0 0.0 0.0 0.0 0.0 0.0 0.0 0.0 0.0 0.0 0.0 0.0 0.0 0.0 0.04900992763651718 0.0 0.0 0.0 0.0 0.0 0.0 0.0 0.0 0.0 0.0 0.0 0.3016314649120643 0.0 0.0024436283161681296 1:0.0 2:0.0 3:0.0 4:0.0 5:1.0 6:1.0 7:1.0 8:1.0 9:0.0 10:0.0 11:0.0 12:1.0 13:1.0 14:1.0 15:0.0 16:1.0 17:1.0 18:1.0 19:1.0 20:0.0 21:0.0 22:1.0 23:1.0 24:1.0 25:1.0 26:1.0 27:0.0 28:1.0 29:1.0 30:0.0 31:1.0 32:1.0 33:1.0 34:1.0 35:1.0 36:0.0 37:0.0 38:0.0 39:1.0 40:1.0 41:1.0 42:1.0 43:0.0 44:0.0 45:0.0 46:0.0 47:0.0 48:0.0 49:1.0 50:1.0 51:1.0 52:0.0 53:0.0 54:0.0 55:0.0 56:0.0 57:0.0 58:0.0 59:1.0 60:0.0 61:1.0 62:0.0 63:0.0 64:0.0 65:0.0 66:1.0 67:0.0 68:1.0 69:1.0 70:0.0 71:1.0 72:0.0 73:0.0 74:0.0 75:0.0 76:1.0 77:1.0 78:1.0 79:1.0 80:0.0 81:1.0 82:1.0 83:0.0 84:1.0 85:1.0 86:1.0 87:1.0 88:1.0 89:1.0 90:0.0 91:0.0 92:0.0 93:0.0 94:1.0 95:0.0 96:0.0 97:0.0 98:0.0 99:0.0 100:0.0 
0.4746723797667278 0.077708692736984 0.048202724769850734 0.0 0.04921017055687198 0.005431574938135618 0.029094774069283246 0.0 6.510243062846935E-4 0.043521980013717584 0.06275825820401516 0.0015850533442737641 0.0 0.023481525260523873 0.046880097862772425 0.01599041682847676 0.0 0.0 0.0 0.015098185333325312 0.08087731873834623 0.19369471296016494 0.01497686492660736 0.0 0.012874917295283436 0.0 0.009724290486333586 0.0277519298295685 0.0 0.16923968989271537 0.06687845128499766 0.18681833425437488 0.0 0.1357875051460558 0.2775523961713196 1:0.0 2:0.0 3:0.0 4:1.0 5:1.0 6:1.0 7:0.0 8:1.0 9:0.0 10:0.0 11:0.0 12:1.0 13:0.0 14:1.0 15:1.0 16:0.0 17:1.0 18:0.0 19:1.0 20:0.0 21:0.0 22:1.0 23:1.0 24:1.0 25:1.0 26:1.0 27:1.0 28:1.0 29:1.0 30:0.0 31:0.0 32:1.0 33:1.0 34:1.0 35:0.0 36:0.0 37:0.0 38:0.0 39:0.0 40:1.0 41:1.0 42:1.0 43:0.0 44:0.0 45:0.0 46:0.0 47:0.0 48:0.0 49:1.0 50:1.0 51:1.0 52:0.0 53:0.0 54:0.0 55:0.0 56:0.0 57:0.0 58:1.0 59:1.0 60:0.0 61:1.0 62:1.0 63:1.0 64:0.0 65:1.0 66:1.0 67:1.0 68:1.0 69:1.0 70:0.0 71:1.0 72:1.0 73:1.0 74:0.0 75:1.0 76:1.0 77:1.0 78:1.0 79:1.0 80:0.0 81:0.0 82:0.0 83:1.0 84:1.0 85:1.0 86:1.0 87:1.0 88:1.0 89:0.0 90:0.0 91:0.0 92:0.0 93:0.0 94:1.0 95:0.0 96:0.0 97:0.0 98:0.0 99:0.0 100:0.0 
0.0 0.0 0.0 0.0 0.19253806420295486 0.0 0.0 0.0 0.0 0.0 0.0 0.0 0.0 0.0 0.0 0.0 0.09130721934341096 0.06272906718104686 0.0 0.0 0.0 0.0 0.007039238550468159 0.0 0.0 0.0 0.0 0.0 0.0 0.017963635048046184 0.0 0.01885791735648918 0.0 0.0 0.0 1:0.0 2:0.0 3:0.0 4:0.0 5:0.0 6:1.0 7:0.0 8:1.0 9:0.0 10:0.0 11:0.0 12:0.0 13:1.0 14:1.0 15:1.0 16:1.0 17:1.0 18:1.0 19:1.0 20:0.0 21:0.0 22:0.0 23:1.0 24:1.0 25:1.0 26:0.0 27:1.0 28:1.0 29:1.0 30:0.0 31:0.0 32:1.0 33:0.0 34:1.0 35:1.0 36:0.0 37:0.0 38:0.0 39:1.0 40:1.0 41:0.0 42:1.0 43:1.0 44:0.0 45:0.0 46:0.0 47:0.0 48:0.0 49:0.0 50:1.0 51:1.0 52:1.0 53:0.0 54:0.0 55:0.0 56:0.0 57:0.0 58:0.0 59:1.0 60:0.0 61:0.0 62:1.0 63:1.0 64:0.0 65:0.0 66:1.0 67:1.0 68:0.0 69:1.0 70:0.0 71:0.0 72:1.0 73:1.0 74:0.0 75:0.0 76:1.0 77:1.0 78:0.0 79:1.0 80:0.0 81:0.0 82:0.0 83:1.0 84:1.0 85:1.0 86:1.0 87:1.0 88:1.0 89:1.0 90:0.0 91:0.0 92:0.0 93:0.0 94:1.0 95:1.0 96:1.0 97:0.0 98:0.0 99:0.0 100:0.0 
0.0 0.005411539509728315 0.06439818581712169 0.0 0.0 0.0 0.0 0.0 0.0 0.0 0.0 0.0 0.0 0.0 0.0 0.0 0.0 0.0 0.0 0.0 0.0 0.0 0.0 0.009142144618411995 0.0 0.040179018258028616 0.0 0.0 0.0 0.19074216476523737 8.597307099893079E-4 0.0 0.0 0.0 0.0 1:0.0 2:0.0 3:1.0 4:0.0 5:1.0 6:1.0 7:0.0 8:1.0 9:0.0 10:0.0 11:0.0 12:1.0 13:1.0 14:1.0 15:1.0 16:0.0 17:1.0 18:1.0 19:1.0 20:0.0 21:0.0 22:0.0 23:1.0 24:1.0 25:1.0 26:1.0 27:1.0 28:1.0 29:1.0 30:0.0 31:0.0 32:0.0 33:0.0 34:0.0 35:0.0 36:0.0 37:0.0 38:0.0 39:1.0 40:1.0 41:1.0 42:1.0 43:0.0 44:0.0 45:0.0 46:0.0 47:0.0 48:0.0 49:0.0 50:1.0 51:1.0 52:1.0 53:0.0 54:0.0 55:0.0 56:0.0 57:0.0 58:0.0 59:0.0 60:1.0 61:1.0 62:1.0 63:0.0 64:0.0 65:0.0 66:0.0 67:0.0 68:0.0 69:1.0 70:1.0 71:0.0 72:1.0 73:1.0 74:1.0 75:1.0 76:1.0 77:1.0 78:1.0 79:1.0 80:0.0 81:0.0 82:1.0 83:1.0 84:1.0 85:1.0 86:0.0 87:1.0 88:1.0 89:1.0 90:0.0 91:0.0 92:0.0 93:1.0 94:1.0 95:0.0 96:1.0 97:1.0 98:1.0 99:0.0 100:0.0 
0.5266964831384702 0.1821398458393575 0.11778867416944128 0.0 0.18319248260893745 0.2853998823171556 0.2531289195007863 0.10574892629515073 0.11688752976424682 0.22206361083438794 0.2857765695617567 0.29540032773751473 0.1947626316295438 0.26382142831675803 0.27292024529245357 0.1841442624010615 0.0 0.07599573227819248 0.021664176420993764 0.1519940040563649 0.4061945681784433 0.4016052121753396 0.17904997434304054 0.2534919780652414 0.1625989696301797 0.19330012359988788 0.18082428613234633 0.19488269213186413 0.16050487056289486 0.34277177539490794 0.15066962432595749 0.5341388490672083 0.7069320168787601 0.23117560619129693 0.5557986790818586 1:0.0 2:0.0 3:0.0 4:0.0 5:0.0 6:0.0 7:0.0 8:1.0 9:0.0 10:0.0 11:0.0 12:0.0 13:1.0 14:1.0 15:0.0 16:1.0 17:1.0 18:1.0 19:1.0 20:0.0 21:0.0 22:0.0 23:1.0 24:1.0 25:1.0 26:1.0 27:1.0 28:0.0 29:1.0 30:0.0 31:1.0 32:1.0 33:1.0 34:1.0 35:1.0 36:1.0 37:1.0 38:0.0 39:1.0 40:1.0 41:1.0 42:1.0 43:0.0 44:0.0 45:0.0 46:0.0 47:0.0 48:0.0 49:0.0 50:1.0 51:1.0 52:0.0 53:0.0 54:0.0 55:0.0 56:0.0 57:0.0 58:1.0 59:1.0 60:1.0 61:1.0 62:1.0 63:1.0 64:1.0 65:1.0 66:1.0 67:1.0 68:1.0 69:1.0 70:0.0 71:1.0 72:1.0 73:1.0 74:1.0 75:1.0 76:1.0 77:1.0 78:1.0 79:1.0 80:0.0 81:0.0 82:1.0 83:0.0 84:1.0 85:1.0 86:1.0 87:1.0 88:0.0 89:0.0 90:0.0 91:0.0 92:1.0 93:1.0 94:0.0 95:0.0 96:0.0 97:0.0 98:0.0 99:0.0 100:0.0 
0.030904699115400648 0.0 0.0 0.20763268911217175 0.0 0.004252533455057097 0.06347858603260173 0.2856089998258574 0.0 0.022610041292836256 0.03153392628419059 0.0 0.08564943918390312 0.005648754769609445 0.01988811949558567 0.05061841139078778 0.25963588919576114 0.0360216240305787 0.023926444757170495 0.0 0.011982987042369619 9.061261860500416E-4 0.01780028742061986 0.0 0.040155503510869675 0.05054638315818032 0.014593054513999422 0.009975422651242285 0.0 0.024714082428255336 0.04822244713032105 0.08507043341852602 0.02282345039547521 0.0072009476467857735 0.0 1:0.0 2:0.0 3:0.0 4:0.0 5:0.0 6:1.0 7:1.0 8:1.0 9:0.0 10:0.0 11:0.0 12:0.0 13:1.0 14:1.0 15:1.0 16:1.0 17:0.0 18:1.0 19:0.0 20:0.0 21:0.0 22:0.0 23:1.0 24:1.0 25:1.0 26:1.0 27:0.0 28:1.0 29:1.0 30:0.0 31:0.0 32:1.0 33:0.0 34:1.0 35:1.0 36:0.0 37:0.0 38:0.0 39:1.0 40:1.0 41:1.0 42:1.0 43:0.0 44:0.0 45:0.0 46:0.0 47:0.0 48:0.0 49:0.0 50:0.0 51:1.0 52:0.0 53:0.0 54:0.0 55:0.0 56:0.0 57:0.0 58:0.0 59:1.0 60:0.0 61:1.0 62:0.0 63:0.0 64:0.0 65:0.0 66:0.0 67:1.0 68:1.0 69:0.0 70:0.0 71:1.0 72:0.0 73:0.0 74:0.0 75:0.0 76:0.0 77:0.0 78:1.0 79:0.0 80:0.0 81:1.0 82:1.0 83:1.0 84:1.0 85:1.0 86:1.0 87:1.0 88:1.0 89:1.0 90:0.0 91:0.0 92:0.0 93:1.0 94:1.0 95:1.0 96:1.0 97:0.0 98:0.0 99:0.0 100:0.0 
0.0 0.0 0.10824864618954451 0.0 0.0 0.0 0.0 0.0 0.013304347931183244 0.0 0.0 0.0 0.020074770092558505 0.0 0.0 0.0 0.0 0.0 0.0 0.20985230598941748 0.16610832328117806 0.056603541766263664 0.0 0.0 0.0 0.0 0.0 0.0 0.0 0.0 0.0 0.032793838527480176 0.0 0.0 0.24878564143289955 1:0.0 2:0.0 3:0.0 4:0.0 5:0.0 6:0.0 7:1.0 8:0.0 9:0.0 10:0.0 11:0.0 12:0.0 13:1.0 14:1.0 15:1.0 16:0.0 17:1.0 18:1.0 19:0.0 20:0.0 21:0.0 22:0.0 23:1.0 24:1.0 25:1.0 26:0.0 27:1.0 28:1.0 29:0.0 30:0.0 31:0.0 32:1.0 33:1.0 34:1.0 35:1.0 36:1.0 37:0.0 38:1.0 39:1.0 40:0.0 41:1.0 42:1.0 43:0.0 44:0.0 45:0.0 46:0.0 47:0.0 48:0.0 49:1.0 50:1.0 51:1.0 52:0.0 53:0.0 54:0.0 55:0.0 56:0.0 57:0.0 58:0.0 59:1.0 60:0.0 61:0.0 62:1.0 63:0.0 64:0.0 65:0.0 66:0.0 67:1.0 68:1.0 69:1.0 70:0.0 71:1.0 72:1.0 73:0.0 74:0.0 75:0.0 76:0.0 77:1.0 78:1.0 79:1.0 80:0.0 81:0.0 82:1.0 83:1.0 84:1.0 85:1.0 86:1.0 87:0.0 88:1.0 89:0.0 90:0.0 91:0.0 92:0.0 93:1.0 94:1.0 95:1.0 96:0.0 97:1.0 98:0.0 99:0.0 100:0.0 
0.1831695754211185 0.0 0.0 0.0 0.0 0.0 0.0 0.0 0.0 0.0 0.0 0.0 0.0 0.0 0.0 0.0 0.0 0.0 0.0 0.0 0.0 0.0 0.0 0.0 0.0 0.0 0.0 0.0 0.0 0.0 0.0 0.0 0.0 0.0 0.0 1:0.0 2:0.0 3:0.0 4:0.0 5:0.0 6:0.0 7:1.0 8:0.0 9:0.0 10:0.0 11:0.0 12:1.0 13:1.0 14:1.0 15:1.0 16:1.0 17:1.0 18:1.0 19:0.0 20:0.0 21:0.0 22:1.0 23:1.0 24:1.0 25:1.0 26:1.0 27:1.0 28:1.0 29:0.0 30:0.0 31:0.0 32:1.0 33:1.0 34:1.0 35:1.0 36:1.0 37:0.0 38:1.0 39:1.0 40:0.0 41:1.0 42:0.0 43:0.0 44:0.0 45:0.0 46:0.0 47:0.0 48:0.0 49:1.0 50:1.0 51:1.0 52:0.0 53:0.0 54:0.0 55:0.0 56:0.0 57:0.0 58:0.0 59:1.0 60:0.0 61:1.0 62:1.0 63:0.0 64:0.0 65:0.0 66:0.0 67:1.0 68:1.0 69:1.0 70:0.0 71:1.0 72:1.0 73:0.0 74:0.0 75:0.0 76:0.0 77:1.0 78:1.0 79:1.0 80:0.0 81:0.0 82:1.0 83:1.0 84:1.0 85:1.0 86:1.0 87:1.0 88:1.0 89:0.0 90:0.0 91:0.0 92:0.0 93:1.0 94:1.0 95:1.0 96:1.0 97:0.0 98:0.0 99:0.0 100:0.0 
0.0681926935920247 0.015233022182101054 0.23156311285438583 0.12777752608197337 0.0 0.25743817478908404 0.16327296657748125 0.054392271033565386 0.37288228124017286 0.05330197244326272 0.04911954914059677 0.2143140613774974 0.13783571476544207 0.06522247325303429 0.1264490708529518 0.1144721382829887 0.0 0.11921884474079902 0.008619119345672699 0.058750988979099944 0.21386683302175 0.21149275667767778 0.03599701066948527 0.40057373120863277 0.07350098338236681 0.08791459799816446 0.13402203243151514 0.0902107283529321 0.1725948075498705 0.0 0.186048482811949 0.14802275295927333 0.0 0.15881402309011397 0.6556164426327213 1:0.0 2:0.0 3:0.0 4:0.0 5:0.0 6:0.0 7:0.0 8:1.0 9:0.0 10:0.0 11:0.0 12:0.0 13:1.0 14:1.0 15:1.0 16:1.0 17:1.0 18:1.0 19:1.0 20:0.0 21:0.0 22:0.0 23:1.0 24:1.0 25:1.0 26:1.0 27:1.0 28:1.0 29:1.0 30:0.0 31:1.0 32:1.0 33:1.0 34:1.0 35:1.0 36:1.0 37:1.0 38:0.0 39:0.0 40:1.0 41:1.0 42:1.0 43:0.0 44:0.0 45:0.0 46:0.0 47:0.0 48:0.0 49:0.0 50:1.0 51:1.0 52:0.0 53:0.0 54:0.0 55:0.0 56:0.0 57:0.0 58:1.0 59:1.0 60:1.0 61:1.0 62:1.0 63:1.0 64:1.0 65:1.0 66:1.0 67:1.0 68:1.0 69:1.0 70:0.0 71:1.0 72:1.0 73:1.0 74:1.0 75:1.0 76:1.0 77:1.0 78:1.0 79:1.0 80:0.0 81:0.0 82:1.0 83:1.0 84:1.0 85:1.0 86:1.0 87:0.0 88:0.0 89:0.0 90:0.0 91:0.0 92:1.0 93:1.0 94:0.0 95:0.0 96:0.0 97:0.0 98:0.0 99:0.0 100:0.0 
0.002344495796438574 0.0905440243467056 0.03167026884933696 0.0 0.0 0.05739845281369596 0.021982436880830587 0.0 0.07084433260969551 0.0553186804586169 0.028707562391535775 0.09970409937294111 0.0886979337460029 0.1473882621458824 0.053200151414318934 0.0 0.0 0.0 0.0 0.03513748678263739 0.0 0.0 0.05129132245446981 0.0 0.040837069816871935 0.11651247475917964 0.0 0.0 0.02181768905774819 0.0 0.21368485624986716 0.055325982630081226 0.3318545302307815 0.0 0.0 1:0.0 2:0.0 3:0.0 4:0.0 5:0.0 6:0.0 7:1.0 8:0.0 9:0.0 10:0.0 11:0.0 12:0.0 13:0.0 14:1.0 15:1.0 16:1.0 17:1.0 18:1.0 19:0.0 20:0.0 21:0.0 22:0.0 23:0.0 24:1.0 25:1.0 26:1.0 27:1.0 28:1.0 29:0.0 30:0.0 31:0.0 32:0.0 33:1.0 34:1.0 35:1.0 36:1.0 37:1.0 38:1.0 39:1.0 40:0.0 41:0.0 42:1.0 43:0.0 44:0.0 45:0.0 46:0.0 47:0.0 48:0.0 49:1.0 50:1.0 51:1.0 52:1.0 53:0.0 54:0.0 55:0.0 56:0.0 57:0.0 58:0.0 59:1.0 60:0.0 61:1.0 62:0.0 63:0.0 64:0.0 65:0.0 66:0.0 67:0.0 68:1.0 69:1.0 70:0.0 71:1.0 72:0.0 73:0.0 74:0.0 75:0.0 76:0.0 77:0.0 78:1.0 79:1.0 80:0.0 81:0.0 82:1.0 83:1.0 84:1.0 85:1.0 86:1.0 87:1.0 88:1.0 89:0.0 90:0.0 91:0.0 92:0.0 93:1.0 94:1.0 95:0.0 96:0.0 97:1.0 98:0.0 99:0.0 100:0.0 
0.0 0.0 0.0 0.08424023041791381 0.0 0.023843795157066673 0.04629047585694004 0.06596233298935103 0.035573914379450323 0.0 0.0 0.0 0.0 0.0021337538843288844 0.0 0.0 0.0 0.0 0.0 0.0 0.0 0.0 0.0 0.09281094167878173 0.0 0.012981424561727675 0.0 0.0 0.0 0.0 0.0 0.009492033333850096 0.6519157114942218 0.0 0.2990067656732718 1:0.0 2:0.0 3:0.0 4:0.0 5:1.0 6:1.0 7:1.0 8:1.0 9:0.0 10:0.0 11:0.0 12:0.0 13:1.0 14:1.0 15:1.0 16:1.0 17:1.0 18:1.0 19:1.0 20:0.0 21:0.0 22:0.0 23:1.0 24:1.0 25:1.0 26:1.0 27:1.0 28:1.0 29:1.0 30:0.0 31:0.0 32:1.0 33:1.0 34:1.0 35:0.0 36:0.0 37:0.0 38:0.0 39:1.0 40:1.0 41:0.0 42:1.0 43:0.0 44:0.0 45:0.0 46:0.0 47:0.0 48:0.0 49:0.0 50:0.0 51:1.0 52:1.0 53:0.0 54:0.0 55:0.0 56:0.0 57:0.0 58:0.0 59:1.0 60:1.0 61:0.0 62:1.0 63:0.0 64:0.0 65:1.0 66:1.0 67:0.0 68:1.0 69:1.0 70:0.0 71:0.0 72:1.0 73:0.0 74:0.0 75:1.0 76:1.0 77:1.0 78:1.0 79:1.0 80:0.0 81:0.0 82:0.0 83:1.0 84:0.0 85:1.0 86:0.0 87:1.0 88:1.0 89:0.0 90:0.0 91:0.0 92:0.0 93:0.0 94:1.0 95:0.0 96:0.0 97:0.0 98:0.0 99:0.0 100:0.0 
0.2168541657055257 0.042547177576790315 0.1111815761970941 0.0 0.09523318077904497 0.06883749949710061 0.17112618277083053 0.0 0.0 0.09556541284901791 0.11688346036895977 0.14748681249490797 0.0 0.028024751003524192 0.048344994023760406 0.1279174064540891 0.0 0.25766881177918854 0.02629845422203138 0.1318415744751969 0.06963761055671353 0.11596972026302196 0.13696323517814749 0.0 0.06616222103953158 0.07798664696951818 0.056398057516712854 0.11960784421327038 0.03935311027420761 0.23975681444078115 0.055301273498123506 0.10808760752893934 0.19330908896266918 0.1015772230668227 0.366384872103905 1:0.0 2:0.0 3:0.0 4:0.0 5:0.0 6:0.0 7:0.0 8:1.0 9:0.0 10:0.0 11:0.0 12:0.0 13:0.0 14:0.0 15:1.0 16:1.0 17:1.0 18:0.0 19:1.0 20:0.0 21:0.0 22:0.0 23:0.0 24:0.0 25:1.0 26:1.0 27:1.0 28:1.0 29:1.0 30:0.0 31:0.0 32:1.0 33:1.0 34:1.0 35:0.0 36:1.0 37:1.0 38:1.0 39:1.0 40:1.0 41:1.0 42:1.0 43:1.0 44:1.0 45:0.0 46:0.0 47:0.0 48:0.0 49:0.0 50:1.0 51:1.0 52:1.0 53:0.0 54:0.0 55:0.0 56:0.0 57:0.0 58:0.0 59:1.0 60:1.0 61:1.0 62:0.0 63:0.0 64:0.0 65:0.0 66:1.0 67:1.0 68:1.0 69:1.0 70:0.0 71:1.0 72:0.0 73:0.0 74:0.0 75:0.0 76:1.0 77:1.0 78:1.0 79:1.0 80:0.0 81:0.0 82:1.0 83:1.0 84:1.0 85:1.0 86:1.0 87:1.0 88:1.0 89:0.0 90:0.0 91:0.0 92:0.0 93:1.0 94:1.0 95:0.0 96:0.0 97:0.0 98:0.0 99:0.0 100:0.0 
0.0 0.0 0.0 0.0 0.03485666190117464 0.003486949582460692 0.0 0.0 0.0 0.0 0.0 0.0 0.0 0.0 0.0 0.0 0.030363638450667824 0.0 0.0 0.0 0.0 0.0 0.0 0.0 0.0 0.0 0.0 0.0 0.01510235701099108 0.0 0.0 0.0 0.0 0.0 0.0 1:0.0 2:0.0 3:0.0 4:0.0 5:1.0 6:1.0 7:1.0 8:1.0 9:0.0 10:0.0 11:0.0 12:0.0 13:1.0 14:1.0 15:0.0 16:1.0 17:1.0 18:1.0 19:1.0 20:0.0 21:0.0 22:0.0 23:1.0 24:1.0 25:1.0 26:1.0 27:1.0 28:1.0 29:1.0 30:0.0 31:0.0 32:1.0 33:0.0 34:1.0 35:0.0 36:0.0 37:0.0 38:0.0 39:1.0 40:1.0 41:0.0 42:1.0 43:0.0 44:0.0 45:0.0 46:0.0 47:0.0 48:0.0 49:0.0 50:0.0 51:1.0 52:1.0 53:0.0 54:0.0 55:0.0 56:0.0 57:0.0 58:0.0 59:1.0 60:1.0 61:0.0 62:1.0 63:0.0 64:0.0 65:1.0 66:0.0 67:0.0 68:1.0 69:1.0 70:0.0 71:0.0 72:1.0 73:0.0 74:0.0 75:1.0 76:1.0 77:0.0 78:1.0 79:1.0 80:0.0 81:0.0 82:0.0 83:1.0 84:1.0 85:1.0 86:1.0 87:1.0 88:1.0 89:1.0 90:0.0 91:0.0 92:0.0 93:0.0 94:1.0 95:0.0 96:0.0 97:0.0 98:0.0 99:0.0 100:0.0 
0.0 0.0 0.0 0.0 0.0 0.0 0.0 0.0 0.0 0.0 0.0 0.0 0.0 0.0 0.0 0.0 0.0 0.0 0.0 0.0 0.0 0.0 0.0 0.0 0.0 0.0 0.0 0.0 0.0 0.0 0.0 0.0 0.0 0.0 0.04813660896008879 1:0.0 2:0.0 3:0.0 4:0.0 5:1.0 6:0.0 7:1.0 8:1.0 9:0.0 10:0.0 11:0.0 12:1.0 13:1.0 14:1.0 15:1.0 16:1.0 17:1.0 18:1.0 19:1.0 20:0.0 21:0.0 22:1.0 23:1.0 24:1.0 25:1.0 26:1.0 27:1.0 28:1.0 29:1.0 30:0.0 31:1.0 32:1.0 33:1.0 34:1.0 35:1.0 36:0.0 37:0.0 38:0.0 39:1.0 40:1.0 41:1.0 42:1.0 43:0.0 44:0.0 45:0.0 46:0.0 47:0.0 48:0.0 49:1.0 50:1.0 51:1.0 52:0.0 53:0.0 54:0.0 55:0.0 56:0.0 57:0.0 58:0.0 59:1.0 60:1.0 61:1.0 62:0.0 63:0.0 64:0.0 65:0.0 66:1.0 67:1.0 68:1.0 69:1.0 70:0.0 71:1.0 72:0.0 73:0.0 74:0.0 75:0.0 76:1.0 77:1.0 78:1.0 79:1.0 80:0.0 81:1.0 82:1.0 83:0.0 84:1.0 85:1.0 86:1.0 87:1.0 88:1.0 89:1.0 90:0.0 91:0.0 92:0.0 93:1.0 94:1.0 95:0.0 96:0.0 97:0.0 98:0.0 99:0.0 100:0.0 
